# Waight Matrix
0.000000000000000000e+00,0.000000000000000000e+00,0.000000000000000000e+00,0.000000000000000000e+00,0.000000000000000000e+00,0.000000000000000000e+00,0.000000000000000000e+00,0.000000000000000000e+00,0.000000000000000000e+00,0.000000000000000000e+00,0.000000000000000000e+00,0.000000000000000000e+00,1.084202172485504434e-19,-2.168404344971008868e-19,-1.084202172485504434e-19,-1.084202172485504434e-19,0.000000000000000000e+00,0.000000000000000000e+00,0.000000000000000000e+00,0.000000000000000000e+00,0.000000000000000000e+00,0.000000000000000000e+00,0.000000000000000000e+00,0.000000000000000000e+00,0.000000000000000000e+00,0.000000000000000000e+00,0.000000000000000000e+00,0.000000000000000000e+00,0.000000000000000000e+00,0.000000000000000000e+00,0.000000000000000000e+00,0.000000000000000000e+00,-4.336808689942017736e-19,-2.168404344971008868e-19,-4.336808689942017736e-19,-6.505213034913026604e-19,-1.301042606982605321e-18,-1.301042606982605321e-18,0.000000000000000000e+00,-1.734723475976807094e-18,0.000000000000000000e+00,-3.469446951953614189e-18,-1.734723475976807094e-18,-1.734723475976807094e-18,-8.673617379884035472e-19,-2.602085213965210642e-18,-1.301042606982605321e-18,-8.673617379884035472e-19,-4.336808689942017736e-19,-2.168404344971008868e-19,-4.336808689942017736e-19,-3.252606517456513302e-19,0.000000000000000000e+00,0.000000000000000000e+00,0.000000000000000000e+00,0.000000000000000000e+00,0.000000000000000000e+00,0.000000000000000000e+00,-4.336808689942017736e-19,-3.252606517456513302e-19,0.000000000000000000e+00,-2.168404344971008868e-19,-4.336808689942017736e-19,-2.602085213965210642e-18,-1.734723475976807094e-18,-3.469446951953614189e-18,-3.469446951953614189e-18,-3.469446951953614189e-18,-1.059729990082086334e-03,-1.397860431333337178e-02,-2.763261094490435804e-03,-6.938893903907228378e-18,-6.938893903907228378e-18,-1.040834085586084257e-17,-6.938893903907228378e-18,-3.469446951953614189e-18,-3.469446951953614189e-18,0.000000000000000000e+00,-8.673617379884035472e-19,-1.301042606982605321e-18,-1.301042606982605321e-18,2.168404344971008868e-19,0.000000000000000000e+00,0.000000000000000000e+00,0.000000000000000000e+00,0.000000000000000000e+00,0.000000000000000000e+00,-8.673617379884035472e-19,-4.336808689942017736e-19,0.000000000000000000e+00,-8.673617379884035472e-19,-1.734723475976807094e-18,-5.204170427930421283e-18,-3.469446951953614189e-18,-3.469446951953614189e-18,-3.469446951953614189e-18,-4.238034151592198762e-03,-9.325939452051536932e-03,-1.026507653402103024e-02,-1.401342761159020400e-02,-1.192744426150789058e-02,-4.791327529797977797e-02,-4.331993164119255640e-02,-1.040834085586084257e-17,-3.469446951953614189e-18,-3.469446951953614189e-18,-6.938893903907228378e-18,-1.734723475976807094e-18,-8.673617379884035472e-19,-4.336808689942017736e-19,-1.084202172485504434e-19,0.000000000000000000e+00,0.000000000000000000e+00,-4.336808689942017736e-19,-4.336808689942017736e-19,-4.336808689942017736e-19,0.000000000000000000e+00,-1.095996522236279518e-03,-1.447812395673417352e-04,-6.938893903907228378e-18,-5.490883291525638921e-03,-1.265983635416454214e-02,-6.090923586872375173e-03,-7.898607993782287562e-03,-3.132741126306327895e-03,-1.520513526027103893e-02,-4.288867262255853519e-02,-3.600802288109591909e-02,-3.484365829324984759e-02,-1.113363787298447816e-03,1.604568579652258797e-02,-6.894712918890578968e-03,-9.496485260572975345e-03,4.295592579495736973e-03,5.523773775561954119e-03,6.698724521544935362e-03,-3.469446951953614189e-18,-1.734723475976807094e-18,-4.336808689942017736e-19,0.000000000000000000e+00,0.000000000000000000e+00,0.000000000000000000e+00,-2.168404344971008868e-19,-4.336808689942017736e-19,1.734723475976807094e-18,-2.096897566892512443e-03,-6.338148060322894295e-04,2.738702638714951565e-03,1.096231199990950478e-03,-1.531259029647348557e-02,-8.066678846134378578e-03,3.490427028081895255e-03,5.488542825810738268e-03,2.502879359686668859e-03,6.626515034038793495e-02,5.704730572317166792e-02,-2.882021079485402870e-02,-3.197664116312338989e-02,3.985561403466381103e-02,-5.099355860418257336e-03,-3.933816317194967910e-02,-4.490981363371834845e-02,-4.639882277216440115e-02,-6.007709774982750855e-02,-7.446413331343201825e-03,-6.938893903907228378e-18,-1.734723475976807094e-18,-4.336808689942017736e-19,0.000000000000000000e+00,-4.336808689942017736e-19,0.000000000000000000e+00,-3.469446951953614189e-18,-3.469446951953614189e-18,-9.226975381179183811e-04,2.743284393972568458e-03,4.342089387854609905e-03,6.006266674384065640e-03,8.262619537651241797e-03,6.342788376004465656e-03,1.646704273513605044e-02,1.772428216642446541e-04,1.634702196883048436e-02,2.599740052627279308e-02,-1.842772426694413990e-02,-1.002212876059674351e-02,-1.858853789933995887e-02,-1.105475557273531348e-02,-9.966013059249514278e-03,-2.412476603221607591e-02,-2.615255403248923499e-02,4.850374970723480943e-03,1.551262136681630550e-02,-6.311194484585473316e-03,-3.469446951953614189e-18,-1.734723475976807094e-18,0.000000000000000000e+00,0.000000000000000000e+00,-8.673617379884035472e-19,0.000000000000000000e+00,-3.469446951953614189e-18,-2.642247140429681423e-02,-1.707032474420471652e-02,3.573077002035317251e-03,4.163346983506309440e-03,5.847838549089226512e-03,1.362503399782684366e-02,2.274153226724932864e-02,3.144930654011690585e-02,-1.252196841734960764e-02,-4.203620588511799983e-03,-8.355981400006755322e-03,-1.011640791283522495e-02,2.123724496899549730e-02,3.172341015089289590e-02,-7.269492201259924319e-03,2.229262300304902730e-02,-8.586294175570136078e-03,-6.792994586085877862e-03,1.475889851920526852e-02,2.293702664902416699e-02,2.026604485366471226e-02,-6.938893903907228378e-18,-1.734723475976807094e-18,0.000000000000000000e+00,-1.084202172485504434e-19,-8.673617379884035472e-19,-8.673617379884035472e-19,-1.734723475976807094e-18,-1.913405334568570038e-02,-1.363796972408036316e-02,-5.548030132334555442e-04,2.022490007166644066e-03,7.754859965100627250e-03,1.271923618799006284e-02,2.791427485682074217e-02,2.618843429073861029e-02,-7.597999889436504728e-03,-1.049164042608979018e-02,-8.486202279506666057e-03,-4.258902315105589365e-03,4.189969855547030775e-02,4.648696000047043697e-02,1.528491967998643793e-02,2.169616082493835280e-02,-2.704151701900588123e-03,-2.964464177086258839e-03,8.998479664236593012e-03,-5.788691802096164116e-03,-2.441987795978408683e-03,-6.938893903907228378e-18,-1.734723475976807094e-18,-6.505213034913026604e-19,-4.336808689942017736e-19,-8.673617379884035472e-19,-1.734723475976807094e-18,-8.673617379884035472e-18,-2.106464330998970846e-02,-8.925435095262959639e-03,-2.311780295928732298e-03,7.958227335879280995e-03,1.055590120763016948e-02,1.560212261822004065e-02,1.803685908822211248e-02,2.859510563674977357e-03,1.305098363262934685e-03,1.475099179856233234e-02,1.688521914342877572e-03,1.430661667728150288e-04,4.787849886777328923e-03,3.251714873235779513e-02,2.003012069642592929e-02,1.281669328641132921e-02,1.426406360756775349e-02,1.514989108872023121e-02,3.492009552588777599e-03,-1.494469287844835473e-02,-2.765649300320500992e-02,-6.938893903907228378e-18,-1.734723475976807094e-18,-8.673617379884035472e-19,-6.505213034913026604e-19,-4.336808689942017736e-19,-3.469446951953614189e-18,-5.204170427930421283e-18,-2.160714641767267144e-02,-2.142904931155157483e-03,-6.343103489465373723e-04,9.743541283723476665e-03,6.509869907180845794e-03,1.533571604608814642e-02,2.506213358870057473e-02,1.062466334312536786e-02,1.423984979547332497e-02,1.342362989586898259e-03,-2.551967776712910085e-02,-2.957327303260144646e-02,-1.704215252857108065e-02,8.186433286307831514e-03,3.691018549176484226e-02,7.137329583978793690e-03,2.940849112857085723e-02,9.032590411127090768e-03,1.442238151334764712e-02,-1.680076053124899410e-02,-2.419652192664481852e-02,-1.237642772396832860e-03,-2.602085213965210642e-18,-4.336808689942017736e-19,-2.168404344971008868e-19,0.000000000000000000e+00,-8.673617379884035472e-19,9.592739044253367764e-04,-2.322729295526905144e-02,-1.887742148659617147e-03,5.414217581338177931e-03,4.761310457798713369e-03,8.613279660463185605e-03,1.714809852018293890e-02,1.514647690288213611e-02,4.145170320695718003e-02,1.753924359963662805e-02,-2.036160810142356725e-02,-3.247055996406283951e-02,-1.638589356400581981e-02,-1.458954390222441666e-02,2.386481679397764455e-02,4.313761102118515711e-02,7.534753196173679668e-03,1.204408655481919999e-02,3.487493000330688098e-03,3.319647590637615775e-02,2.255873772669031441e-03,1.611872440400671444e-02,-1.965275475556780421e-03,-8.673617379884035472e-19,-4.336808689942017736e-19,-3.252606517456513302e-19,-8.673617379884035472e-19,-8.673617379884035472e-19,2.098546108735505761e-02,-9.596320541462017781e-03,8.465345657006864699e-03,-1.015448502992913338e-04,-5.918304537311916413e-03,1.165511548963048261e-02,2.673441517896923969e-02,2.174570930191692397e-02,2.171608411535189131e-02,1.449443200165323464e-02,-2.413807425492975334e-02,-2.570623329423101650e-02,-3.299965256276855829e-02,-3.254037880522776122e-02,3.090241658666853519e-02,4.878151580734755438e-02,2.023108906345185559e-02,7.441030766978967703e-03,1.963667691939079141e-02,2.618933304526766676e-02,1.738575735273500608e-02,1.549425957068525928e-02,2.912131175568114828e-03,-2.168404344971008868e-18,-8.673617379884035472e-19,-4.336808689942017736e-19,-2.168404344971008868e-19,-1.734723475976807094e-18,1.745125554254178812e-02,-7.659716821984280562e-03,6.733291026976909177e-03,-4.313360284473252704e-03,5.201997096952112876e-03,2.071704679821133321e-02,1.529661151972538935e-02,9.948304424449820604e-03,1.553501886927960429e-02,1.996362259202442979e-02,-4.983551488290294262e-02,-2.728182881174255267e-02,-9.594352017405925748e-02,-4.230191547316260181e-02,2.738916580895663089e-02,4.333989196833887975e-02,2.748573386848362360e-02,2.242124891462334013e-02,3.581467104155827003e-02,5.096272027298115459e-02,2.566124263818119269e-02,1.205495206084664268e-02,3.243821963555401297e-03,-8.673617379884035472e-19,-2.168404344971008868e-19,0.000000000000000000e+00,-3.252606517456513302e-19,-4.336808689942017736e-19,-1.734723475976807094e-18,-6.089860628481042273e-03,4.678515239611751725e-03,1.933015330124540632e-02,2.550510205488057403e-02,1.748737779751410870e-02,-9.536198909699478143e-03,4.864862198245016069e-03,3.075853858165243648e-02,1.848925529600586870e-02,-4.605791249881249771e-02,-7.953949307261758139e-02,-1.286446006287111088e-01,-3.449779303906044814e-02,4.604735338961762903e-02,4.865612168392510761e-02,2.934500131272561180e-02,4.040584696343632598e-02,3.764106950162819654e-02,3.179519237991498826e-02,1.809448371816976472e-02,1.115046134949896489e-02,7.009365477316617694e-03,-8.673617379884035472e-19,-4.336808689942017736e-19,0.000000000000000000e+00,0.000000000000000000e+00,-8.673617379884035472e-19,-3.469446951953614189e-18,3.942973767442563282e-03,1.932260195098236752e-02,2.721158231331161081e-02,1.769663967160070572e-02,2.440181918939531708e-02,2.594440205815730371e-02,1.436439105935501115e-02,3.590389708983768302e-02,-2.146334528068092121e-02,-7.769612125880233366e-02,-8.889340652292207490e-02,-7.047834979828740409e-02,5.517567607478471303e-04,8.081432852799187716e-02,3.976357546623186107e-02,2.830392308394770462e-02,4.233738815526089799e-02,2.769015693358437696e-02,2.692534433016808768e-02,9.482822998642968793e-03,1.193248724425264098e-02,5.316560225871365571e-03,-1.734723475976807094e-18,-8.673617379884035472e-19,0.000000000000000000e+00,-4.336808689942017736e-19,0.000000000000000000e+00,-1.734723475976807094e-18,6.518737639766521152e-03,2.358195985593821917e-02,1.846486963944515836e-02,1.403915772518751770e-02,3.983365643171717790e-02,6.173564305385816769e-02,5.165891592628168993e-02,9.380887684835942375e-03,-4.082102594902142778e-02,-7.003796136513548709e-02,-6.994508083138131771e-02,-1.946901039646438750e-02,2.832627698709565267e-02,6.723592422903613974e-02,5.682039987180526053e-02,4.217464812907199823e-02,3.461938760215963612e-02,3.010016414753870911e-02,1.858299133639303158e-02,1.088377392005020206e-03,3.205244112711308491e-04,-2.713219786098569272e-03,-8.673617379884035472e-19,-2.168404344971008868e-19,0.000000000000000000e+00,0.000000000000000000e+00,-1.734723475976807094e-18,-3.469446951953614189e-18,1.281484898133126299e-02,1.787092641480524449e-02,1.337640753256708753e-02,2.866592256880778206e-02,6.363225299036828764e-02,4.877589054835939492e-02,4.268643856320422647e-02,2.396899722674789013e-02,-3.015892943921017963e-02,-5.612584467709130776e-02,-3.673193361158703929e-02,-7.810351804516967034e-03,2.319970239256390065e-02,3.575498736347080403e-02,4.824883555707110139e-02,2.960870767590000063e-02,1.645267242207990727e-02,1.815438935375147250e-02,8.864145875887283199e-03,1.951846306909591627e-03,-4.793836440257312481e-03,-2.397286805282060340e-02,-8.673617379884035472e-19,-8.673617379884035472e-19,-2.168404344971008868e-19,-2.168404344971008868e-19,-1.734723475976807094e-18,-6.938893903907228378e-18,1.925193234542389720e-02,2.355021988726705220e-02,2.810189512493714223e-02,4.644380673088974176e-02,6.823996317294410419e-02,1.069981837275589195e-02,-3.025512627053791870e-03,3.605433719050041286e-02,-3.239617514326358083e-02,-5.669943403038840701e-02,-2.251446165599786664e-02,1.085132666658703005e-03,5.554255673742236610e-03,2.091897998914398621e-02,8.320608986159203080e-03,2.606136537767717032e-02,3.888461791811126389e-04,3.107368064947962916e-03,9.519733261344136277e-03,6.148956504488361369e-03,-7.477815820714482989e-03,-2.090384608512641657e-02,-1.734723475976807094e-18,-4.336808689942017736e-19,0.000000000000000000e+00,0.000000000000000000e+00,-1.734723475976807094e-18,3.469446951953614189e-18,2.332069310599602791e-02,2.504948467019211741e-02,3.487859346169014385e-02,3.034681738148072710e-02,3.586460846969551780e-02,-8.716507800123542149e-03,2.353437841361750993e-03,1.235712859641646677e-02,-2.593373829991552082e-02,-3.980618192716610382e-02,-1.086668894717408504e-02,5.394999126393268396e-03,-2.637945885276191810e-03,1.498553327645496536e-02,2.324013374235436857e-02,2.997872688974596855e-02,8.204367107666803161e-03,1.489455149124541827e-02,1.401542067265466873e-02,7.600404080005992991e-03,-4.102057050339551203e-05,-1.169793891663421272e-02,-3.469446951953614189e-18,-2.168404344971008868e-19,0.000000000000000000e+00,-2.168404344971008868e-19,-1.734723475976807094e-18,-1.040834085586084257e-17,1.367851490482160925e-02,1.425789583556796511e-02,2.660993560969455302e-02,1.960488207080864770e-02,3.607721315980505147e-03,-1.235259677985117363e-02,1.567290223874229921e-02,2.788832154604990732e-02,7.046833741462640160e-03,1.075081248690686400e-02,1.596321063907105153e-02,4.984346051034264230e-03,-2.659383440334131196e-02,-4.904373373556921573e-02,-3.395122217181958252e-02,1.682407203145182273e-02,-1.073556138616051092e-02,1.643019739451585803e-03,1.026132530560533787e-02,1.544226899730244407e-03,-9.761495157382100649e-03,-1.116507877731503888e-02,0.000000000000000000e+00,-1.084202172485504434e-19,-4.336808689942017736e-19,-6.505213034913026604e-19,-2.602085213965210642e-18,-6.938893903907228378e-18,2.201407231374657991e-02,1.651728195667325969e-02,1.419587303086081512e-02,4.627535192588756036e-03,-1.054388398864775610e-02,-1.605420517781002299e-03,4.623373352499132033e-02,7.802115822692576308e-02,1.521443385504074770e-02,5.077932235434748365e-02,4.455738364965634857e-03,-1.763929780567809191e-03,-3.940761800458533748e-02,-3.427865839712279650e-02,-1.942963707728447703e-02,-3.858891690115232032e-03,-3.803200287358574072e-02,-1.214508733640077068e-02,7.175834656601841333e-03,9.659675788407841995e-04,-1.194283037195868757e-02,-1.456176940384096632e-02,0.000000000000000000e+00,-3.252606517456513302e-19,-1.084202172485504434e-19,-4.336808689942017736e-19,-8.673617379884035472e-19,0.000000000000000000e+00,2.153010748924200773e-03,-3.599832835117035279e-03,3.011505997128245682e-04,-1.206844142645225465e-02,-1.543897310500351623e-02,-2.692939900482418242e-02,-5.124696686449013716e-03,2.295224138996650176e-02,2.856330780779628431e-02,3.655635248518603053e-02,2.369483684102911131e-02,-2.163265517528943985e-02,-1.343993728479559585e-04,-2.629635855388628290e-02,-2.511204709006831931e-02,-2.943915398830723729e-03,-3.445011624849214638e-02,-1.541277759001884184e-02,9.179905782625050192e-03,9.542004545820386915e-03,3.884049573386730986e-03,-1.028305747521737756e-02,-4.336808689942017736e-19,-1.084202172485504434e-19,0.000000000000000000e+00,0.000000000000000000e+00,-4.336808689942017736e-19,-3.469446951953614189e-18,-1.829868416466209555e-02,-5.625121923363398183e-03,-7.240428363978246122e-03,-5.917862120430369965e-03,-3.641750488427554500e-03,-2.032184749289504128e-02,1.150748056309834969e-02,5.208120799118840655e-02,5.913895531334390637e-02,2.742449693215261164e-02,7.548667880642692674e-03,-7.116828510398354180e-03,-2.467542003343217716e-02,-2.745453285926975628e-02,-1.173258317436611659e-02,-4.805408887963637243e-03,-3.682761025356899587e-02,1.278288489883627407e-03,6.489525241847829418e-03,1.782233090859675073e-03,-1.734723475976807094e-18,0.000000000000000000e+00,-8.673617379884035472e-19,0.000000000000000000e+00,0.000000000000000000e+00,0.000000000000000000e+00,-4.336808689942017736e-19,-8.673617379884035472e-19,-7.673654453511671164e-03,-1.375364812623168856e-02,-3.419861480214355862e-03,7.271027063277344521e-03,1.001048926426934341e-02,-1.649375982097051052e-02,-1.250893892790645376e-02,4.846192699446302127e-03,3.531376354852150401e-02,4.743275106528399565e-02,2.858070197032464010e-02,-1.188581461419967872e-02,-4.961385835625282958e-03,-7.236685344644409879e-03,1.198184714672646464e-02,-1.523215727068566797e-02,-1.244558335106803193e-03,0.000000000000000000e+00,-1.734723475976807094e-18,-2.602085213965210642e-18,-1.734723475976807094e-18,0.000000000000000000e+00,0.000000000000000000e+00,0.000000000000000000e+00,0.000000000000000000e+00,0.000000000000000000e+00,-6.505213034913026604e-19,2.168404344971008868e-19,-8.673617379884035472e-19,-5.204170427930421283e-18,0.000000000000000000e+00,-6.938893903907228378e-18,-3.469446951953614189e-18,0.000000000000000000e+00,2.977755821219479904e-04,4.416935999767002130e-04,-3.820188718466567546e-02,-2.061518941734032107e-02,-1.387778780781445676e-17,-1.387778780781445676e-17,-2.081668171172168513e-17,-6.938893903907228378e-18,-3.469446951953614189e-18,3.469446951953614189e-18,0.000000000000000000e+00,-5.204170427930421283e-18,-1.734723475976807094e-18,-8.673617379884035472e-19,-1.301042606982605321e-18,0.000000000000000000e+00,-3.252606517456513302e-19,0.000000000000000000e+00,0.000000000000000000e+00,0.000000000000000000e+00,0.000000000000000000e+00,0.000000000000000000e+00,-8.673617379884035472e-19,-1.734723475976807094e-18,0.000000000000000000e+00,-6.938893903907228378e-18,-6.938893903907228378e-18,0.000000000000000000e+00,0.000000000000000000e+00,-6.938893903907228378e-18,-3.469446951953614189e-18,-3.469446951953614189e-18,-1.734723475976807094e-17,-1.387778780781445676e-17,-3.469446951953614189e-18,0.000000000000000000e+00,0.000000000000000000e+00,-3.469446951953614189e-18,-3.469446951953614189e-18,0.000000000000000000e+00,-1.301042606982605321e-18,-8.673617379884035472e-19,-3.252606517456513302e-19,-1.084202172485504434e-19,0.000000000000000000e+00,0.000000000000000000e+00,0.000000000000000000e+00,0.000000000000000000e+00,0.000000000000000000e+00,0.000000000000000000e+00,0.000000000000000000e+00,-4.336808689942017736e-19,-4.336808689942017736e-19,-4.336808689942017736e-19,-1.734723475976807094e-18,-1.734723475976807094e-18,-2.602085213965210642e-18,-1.734723475976807094e-18,-3.469446951953614189e-18,-1.734723475976807094e-18,-5.204170427930421283e-18,-1.734723475976807094e-18,-3.469446951953614189e-18,-2.602085213965210642e-18,-8.673617379884035472e-19,-1.734723475976807094e-18,0.000000000000000000e+00,-4.336808689942017736e-19,-2.168404344971008868e-19,-2.168404344971008868e-19,0.000000000000000000e+00,0.000000000000000000e+00,0.000000000000000000e+00,0.000000000000000000e+00
0.000000000000000000e+00,0.000000000000000000e+00,0.000000000000000000e+00,0.000000000000000000e+00,0.000000000000000000e+00,0.000000000000000000e+00,0.000000000000000000e+00,0.000000000000000000e+00,0.000000000000000000e+00,0.000000000000000000e+00,0.000000000000000000e+00,0.000000000000000000e+00,5.204170427930421283e-18,3.469446951953614189e-18,1.734723475976807094e-18,1.734723475976807094e-18,0.000000000000000000e+00,0.000000000000000000e+00,0.000000000000000000e+00,0.000000000000000000e+00,0.000000000000000000e+00,0.000000000000000000e+00,0.000000000000000000e+00,0.000000000000000000e+00,0.000000000000000000e+00,0.000000000000000000e+00,0.000000000000000000e+00,0.000000000000000000e+00,0.000000000000000000e+00,0.000000000000000000e+00,0.000000000000000000e+00,0.000000000000000000e+00,0.000000000000000000e+00,-3.469446951953614189e-18,-3.469446951953614189e-18,1.040834085586084257e-17,3.469446951953614189e-17,-2.081668171172168513e-17,1.387778780781445676e-17,-1.387778780781445676e-17,2.775557561562891351e-17,1.387778780781445676e-17,-1.387778780781445676e-17,8.668488641888821844e-03,2.459843815237650055e-02,1.187000506546222189e-02,0.000000000000000000e+00,0.000000000000000000e+00,6.938893903907228378e-18,6.938893903907228378e-18,0.000000000000000000e+00,-8.673617379884035472e-18,0.000000000000000000e+00,0.000000000000000000e+00,0.000000000000000000e+00,0.000000000000000000e+00,0.000000000000000000e+00,0.000000000000000000e+00,0.000000000000000000e+00,5.204170427930421283e-18,6.938893903907228378e-18,6.938893903907228378e-18,0.000000000000000000e+00,-1.387778780781445676e-17,-5.084196175973387799e-03,-1.029012180441979396e-02,-1.500626039155722458e-02,-1.344978054043813320e-02,-6.796091469601611701e-02,-6.978157112129895756e-02,-7.941561023034976463e-02,-5.286606608009380981e-02,-6.019027015286393389e-02,-4.151599779484055341e-02,-1.587914813720314733e-02,-2.864153769624899759e-03,-9.471462643944550397e-03,-6.158989831143657501e-03,-4.163336342344337027e-17,2.775557561562891351e-17,0.000000000000000000e+00,6.938893903907228378e-18,0.000000000000000000e+00,0.000000000000000000e+00,0.000000000000000000e+00,0.000000000000000000e+00,-1.734723475976807094e-18,1.040834085586084257e-17,0.000000000000000000e+00,2.775557561562891351e-17,4.163336342344337027e-17,8.326672684688674053e-17,-1.796499980240992556e-02,-1.078591237450775980e-01,-2.728920320523964271e-03,1.419656429964019639e-02,-1.098897427225175444e-02,-7.291701464608498634e-03,-9.886463465881534241e-02,-8.017794686240475865e-02,-3.177192707961787321e-02,3.162819852331773263e-02,-4.782324738047066814e-02,-8.680008396593499875e-02,1.645064212454460661e-01,-5.895850630233762102e-03,3.271903844590999533e-02,1.181325122486015511e-02,0.000000000000000000e+00,6.938893903907228378e-18,1.734723475976807094e-18,0.000000000000000000e+00,0.000000000000000000e+00,0.000000000000000000e+00,0.000000000000000000e+00,-6.938893903907228378e-18,0.000000000000000000e+00,-3.597855121697832170e-02,6.306532134168646442e-02,-2.831957115605798769e-01,-1.159260876918496996e-02,-9.544019869538400425e-03,6.324508826639996251e-02,-6.739740226907875442e-03,-8.573577116736580406e-02,1.272608692071323100e-01,-1.184804657694696894e-01,-1.047048464032375170e-01,-5.498112352622563925e-02,-3.873647679596547988e-02,4.578817972313831142e-02,-2.550521631210778128e-02,2.064714961490477785e-01,2.061116904990493159e-01,-1.086437036328648520e-01,2.477133933636460617e-02,1.742879361660912285e-02,0.000000000000000000e+00,6.938893903907228378e-18,0.000000000000000000e+00,0.000000000000000000e+00,0.000000000000000000e+00,3.469446951953614189e-18,0.000000000000000000e+00,8.326672684688674053e-17,-3.904095278399870306e-02,-1.108591514745805445e-01,-5.057532066985505337e-02,9.667333480969447779e-02,9.804489104827740498e-02,-1.243578371633821122e-01,-1.524294867168831114e-01,-5.459984556799185595e-02,-1.095640016034929998e-01,-2.320041016648866083e-02,1.074571139315609880e-01,-5.094488545778097510e-02,2.913543583549405014e-02,4.239604085636727859e-03,9.906166882570710541e-02,4.175412935695332894e-02,-1.453136495877091483e-01,8.167129647912871326e-02,-2.130027085011537702e-02,2.281458096465244223e-02,5.551115123125782702e-17,2.775557561562891351e-17,0.000000000000000000e+00,0.000000000000000000e+00,0.000000000000000000e+00,0.000000000000000000e+00,9.714451465470119729e-17,1.031459058453343403e-02,3.994818409179563823e-02,1.108765577386539025e-03,1.051264202278517079e-01,-4.360321736961436656e-03,-1.246762056015991438e-01,-2.460768875695341570e-02,6.344678013775000014e-02,2.116036898498143554e-02,1.297460911185223109e-01,7.131027327470518262e-02,-5.094770325326181126e-02,-8.173298577834176015e-02,-1.286357467127556831e-01,1.084799952908079845e-01,-4.450894467209032257e-03,1.742682328181965890e-02,-6.825816123923922341e-02,-7.336610468392712470e-02,1.116502633328753519e-01,9.338420831172605796e-02,1.110223024625156540e-16,-9.714451465470119729e-17,2.081668171172168513e-17,0.000000000000000000e+00,-1.387778780781445676e-17,4.163336342344337027e-17,5.551115123125782702e-17,-5.687121276953674420e-02,-2.294884239736302844e-02,-1.651499790695239167e-01,3.447436016182564567e-02,-1.451550035917671677e-01,7.651793755064678626e-02,4.935914147322281731e-02,4.149714840070428679e-04,-1.522618442474059086e-01,-8.846751284075209110e-02,-4.405698857764928089e-03,-1.965332301466685139e-03,9.652859538726521471e-03,9.260178881944025608e-02,1.113947383232516408e-01,-1.308535878524685891e-02,7.432436828864152911e-02,1.150451177684975734e-01,6.866029891961877851e-02,1.955626174099727443e-01,2.526589619490758332e-01,1.110223024625156540e-16,8.326672684688674053e-17,6.938893903907228378e-18,1.529083694273672064e-03,-6.938893903907228378e-18,5.551115123125782702e-17,-1.387778780781445676e-16,-6.032544661493222105e-02,2.165496571043296070e-02,-5.460654492182609454e-02,-2.956023566735549446e-03,-7.660943151739868506e-02,3.639203025787191015e-02,-2.253211065545934755e-03,-9.202233514304841711e-02,2.182149886873800404e-01,1.027376403601595878e-02,1.233546955736965212e-01,3.540833689341102430e-02,1.590771203074955176e-01,-5.816795008014868928e-02,8.748242409898032701e-02,-3.230434251736902240e-02,5.519366055935037707e-02,8.545278234233177894e-02,9.901181903007522100e-02,-1.607023621599557028e-02,1.032166394946111843e-01,1.110223024625156540e-16,0.000000000000000000e+00,-6.938893903907228378e-18,6.938893903907228378e-18,-2.081668171172168513e-17,0.000000000000000000e+00,-2.775557561562891351e-17,3.067216820769996799e-02,7.919274805909237713e-02,-6.397164343169897682e-02,3.377452888405976100e-02,-8.234369824200227228e-03,4.057617813102554205e-02,3.920220750941516563e-02,3.041689131656311051e-02,-1.212864670811107382e-01,1.808028710544744844e-01,9.489651977613630662e-02,-2.243859109605894075e-01,2.251887018404286067e-02,9.303678560972943046e-02,-1.275622218264290675e-01,1.028578776623559898e-01,-9.531347018429725537e-03,-7.359753163670212928e-02,-2.083813855428593431e-01,1.952617724014227285e-03,-9.174264587909070068e-02,5.551115123125782702e-17,2.775557561562891351e-17,-6.938893903907228378e-18,-6.938893903907228378e-18,-4.163336342344337027e-17,8.326672684688674053e-17,-1.096102607159751829e-02,-1.268345531356629419e-02,-6.026636693870971589e-02,-4.109023047838017417e-02,5.155021049344116202e-02,-5.318374348134546903e-02,1.787222608679694957e-03,1.748575126306499694e-01,-1.149475690798392180e-01,-4.271833859923730714e-02,1.718852400905127586e-01,1.724605613699061180e-01,7.258107949994843655e-02,3.963394669739350729e-02,-9.390374896960396178e-02,5.518461833555890483e-02,6.646950027874010125e-02,-2.301064587929846361e-02,-8.081637582431744349e-03,2.250811564266214093e-01,3.585712913615818342e-02,2.930250906486797646e-03,-4.257303299382783623e-02,1.249000902703301108e-16,6.938893903907228378e-18,1.040834085586084257e-17,-1.387778780781445676e-17,2.775557561562891351e-17,-4.275822041848176269e-02,-1.575070123724867099e-01,-1.772449812973902472e-01,7.513876677889175237e-02,2.775786474139807503e-02,5.396855630025532147e-02,7.315877558136463232e-02,1.286611737267139843e-01,1.176807127598139824e-01,1.865215226114441682e-02,2.030895448603106945e-01,-1.517462249665400137e-02,3.350195272769329602e-02,7.389103646678618631e-02,1.570654762299338314e-01,1.637638071603122469e-01,1.463511582605411254e-01,1.838836023044103651e-01,1.316663224158189927e-01,-1.262554824680495180e-02,-8.319899103674166518e-02,-2.095489785714571562e-02,-1.097594474572413104e-01,-1.387778780781445676e-17,0.000000000000000000e+00,3.469446951953614189e-18,-6.938893903907228378e-18,-5.551115123125782702e-17,1.147808600355002540e-01,3.501467682551939742e-02,1.720014112582716193e-01,5.596069869381498085e-02,-3.073239860184565075e-02,6.828100922061353106e-02,2.395693864596758205e-02,5.710446836443777707e-02,2.282285192279376873e-01,8.486532159258639019e-02,-6.474463542973825370e-03,2.058892373832771350e-02,-1.661261544881244001e-01,-4.444110062810424644e-02,9.654491443535484496e-02,3.227703478535259851e-02,1.448851650029503446e-02,1.216120505589726175e-01,7.664274335198673072e-02,1.195710085871536377e-01,2.477999533401317178e-01,1.464470858774974404e-01,7.433437988299099186e-02,-7.040965800553578013e-03,6.938893903907228378e-18,0.000000000000000000e+00,6.938893903907228378e-18,1.387778780781445676e-17,-3.791556903954648727e-02,-4.077306658930579530e-04,8.281686518904207706e-02,1.840461964229102576e-01,8.247800991230160028e-02,1.377002805318567336e-01,-3.756698332329377887e-02,-4.991583866926187218e-02,-2.554553000284387476e-02,1.009405387356779593e-01,-1.310694102734851207e-01,-1.876704861658863299e-01,-1.086685201398962519e-01,-8.824829109085663426e-02,1.549541601102033539e-02,-2.577077274747738289e-02,1.039372395333637566e-01,-7.544027034805833587e-02,5.931168154326305064e-02,1.448777609562088564e-01,1.325339609951574626e-01,-6.945437186923886230e-02,3.023589532877971053e-02,-4.000116170500452040e-03,0.000000000000000000e+00,0.000000000000000000e+00,-3.469446951953614189e-18,1.387778780781445676e-17,-1.295572434988861432e-01,8.884682184872821908e-02,-7.796753124147071112e-03,1.538627244853345566e-01,-1.387097102242829116e-03,2.534747501692892757e-01,4.924775163145576895e-02,8.790239137081144738e-02,8.321243629270294595e-03,4.812292854141486664e-02,-6.735865194975376724e-02,-2.862522378368188569e-01,-2.602108200159995999e-01,-2.985930903431450734e-01,-1.878295776464145028e-03,1.129481191277170726e-02,1.544888131532262676e-02,6.117365092774273982e-02,2.677602668712675271e-01,-1.795256741225181862e-02,2.728519468678075599e-02,-4.778716884259681663e-02,-9.611750239968464005e-02,-3.166769475386631283e-02,1.040834085586084257e-17,0.000000000000000000e+00,0.000000000000000000e+00,-1.073492920225772862e-03,2.000851898972180742e-02,1.652801471133734657e-01,-1.255746821039083194e-01,-3.767544395360289400e-02,1.426162057550467432e-01,1.605757291154708555e-01,3.706118564721994080e-02,-3.207483543646916235e-03,6.053801340866372949e-02,8.544373911741742766e-02,-2.339950267419779184e-01,-1.087330763493261632e-01,-1.189042692695960746e-01,-4.567667157983734683e-02,-8.822721511749609391e-02,2.933995133973399394e-02,-8.995037876255596032e-02,1.385750459952641567e-01,6.107301997180791808e-03,6.494210021087548634e-02,1.499365290085444558e-01,-1.046725811555220265e-01,9.205199035320921208e-02,-4.282284765633719015e-02,0.000000000000000000e+00,0.000000000000000000e+00,6.938893903907228378e-18,-5.089871307338414419e-03,1.037320306220390620e-02,-1.076367170252015004e-01,-3.766160530518125604e-02,1.124419914771088713e-01,-2.454003303696405958e-02,-3.820913600894271234e-02,5.983982918563923725e-02,7.651096034517440581e-02,-7.238481927457990350e-03,-1.908625233697672785e-01,-2.239280977534370276e-01,-3.045075414116948931e-01,-1.287943683835057751e-01,-4.940366489771219616e-02,-1.176946673651272091e-01,-1.264512540919375816e-01,-5.954996567850501243e-02,-1.116764744638543139e-01,-2.835704922063253530e-02,-1.126037805512057899e-01,-3.000945802162591214e-03,7.643677377948543405e-02,-1.000207370718209643e-01,-3.435824655594871269e-01,-6.938893903907228378e-18,0.000000000000000000e+00,-6.938893903907228378e-18,-6.724215448673930007e-03,-4.286836441495370242e-02,3.753567125022616580e-03,2.427254261694894444e-01,-7.244516865021521923e-02,-1.338567375600809850e-01,-5.264663485394116549e-03,8.747811535443961173e-02,8.284629069041077321e-02,-2.246492031970687142e-01,-1.043397737038264661e-01,-3.026471835418902412e-01,-2.425967212902356840e-01,-9.510113261392105777e-02,-9.436076537261611774e-02,-5.905217052241962250e-02,-2.524495492690070897e-02,2.719849965618759136e-02,2.036871452366657842e-02,-5.115316924067625504e-02,-4.291295407424855490e-02,5.227902686355750950e-02,4.014287572883745714e-02,-5.974579765168314127e-02,-6.938628053068060519e-02,-6.255827074200585175e-03,6.938893903907228378e-18,1.040834085586084257e-17,-1.446064119576082052e-03,-2.585374415863167519e-02,-4.282023720056626903e-02,-3.101002554515740472e-01,-1.696439046570743514e-01,-5.393946239815550214e-02,1.069701352216314572e-01,6.869563530068933943e-02,8.602143956702151817e-02,1.191621783991579364e-01,2.236359243734294400e-01,-1.407833483151899601e-01,-1.728176824351259910e-01,5.458487828520278140e-04,-1.132410270556139520e-01,2.269451910149566931e-02,1.073789403257174868e-02,2.604517985739879943e-02,-1.022265036167572250e-01,4.560026089233441132e-02,5.252740880385425859e-02,-9.032641926266432586e-02,-4.672470678320322923e-02,-5.900314426602815132e-02,-4.707832414479931615e-03,-1.476604435670068882e-04,0.000000000000000000e+00,6.938893903907228378e-18,-3.998798819158363993e-03,-2.737661010279657942e-02,-3.425087135621396328e-02,-2.263233975821998811e-02,-5.882251166491392347e-02,5.663386637011913471e-02,-6.964975343892931825e-02,-5.508749046432548369e-02,-1.036655314561266694e-01,-1.733089427132361582e-02,5.404497150249826243e-02,-7.755453395133821148e-02,-1.663898642497675662e-01,-1.177727015433895907e-01,-5.385740501048918993e-02,-1.884579416170212296e-01,3.788711792340040962e-02,-8.136251363703328465e-03,2.347916515701609086e-02,4.786175278577566028e-02,8.849102542541176231e-03,2.463793255164692386e-02,2.315370682150091897e-02,-2.082559731654362589e-02,-3.930939139365736967e-02,1.040834085586084257e-17,0.000000000000000000e+00,1.040834085586084257e-17,-2.795135389288025407e-02,3.438208909948531344e-03,9.471538584858218979e-02,-2.959812495735070215e-03,4.566719832952403912e-02,-2.323464663487295745e-02,7.378436537730514999e-05,9.646781821437877547e-02,1.587768827095414892e-02,1.179045910033095224e-01,1.378480331790038482e-01,1.270792311568506583e-01,-1.866725487324228938e-01,-1.036744320698151922e-01,-6.963146820077439902e-02,-1.228152558077765105e-01,-2.860745305618189738e-02,-2.934111174383607912e-02,7.029628751685587651e-02,-1.040742808706947298e-01,3.555345880170096562e-02,-3.346278670884245826e-02,-3.496095255793889300e-02,-3.622796793853633179e-02,-1.924898909011833747e-02,1.734723475976807094e-18,0.000000000000000000e+00,-1.387778780781445676e-17,-6.113934068409725142e-02,3.564098982266200588e-03,2.474579894579220785e-03,-1.300527537861952965e-01,-1.091454392570616605e-01,1.325725933911736654e-02,-1.140926323666293651e-01,-1.441299328046334871e-01,5.771224381199213660e-02,1.055159805895433678e-01,9.774401036187541081e-03,-8.210987147133974595e-03,2.315027400148328418e-03,6.174815782614984094e-02,1.260592363231241575e-02,-1.920294784894638895e-01,-1.078211517035434497e-01,-1.251765495009524165e-02,-2.068162752330603427e-01,-8.306504816739990193e-02,-5.090776984603381794e-02,-5.537333064739083377e-02,-5.017565602607709785e-02,-9.096593466098917835e-02,5.485453384472285809e-02,5.204170427930421283e-18,1.734723475976807094e-18,-6.938893903907228378e-18,-1.021930745643051530e-02,-4.866397423930075850e-02,-1.603152580357225521e-02,-1.432857579176904927e-01,3.275387340679447590e-02,-1.138640704280851068e-01,-1.652895033861356833e-01,-1.612216311279879299e-02,1.317008634952272494e-01,6.172371973439383375e-02,7.659825619683113818e-02,2.337127459118194528e-01,1.011412681901385779e-02,-4.960558272893683673e-02,3.329494158485404864e-02,-1.326325453829974577e-01,-8.771509000452359928e-02,3.148160423627666127e-02,6.263229189653675422e-02,9.001723859244470383e-02,3.624839340332364213e-02,1.007390122299085672e-01,9.217768699590156434e-02,-4.972848836109794446e-03,1.300258813682613965e-02,1.734723475976807094e-18,0.000000000000000000e+00,0.000000000000000000e+00,-6.938893903907228378e-18,-4.983576129595519710e-02,-1.445201608778272084e-01,5.739523915189859160e-02,-1.304306764895776238e-01,6.709848940020557428e-02,1.215289440908207119e-03,4.808354126056324507e-02,3.182362432512220174e-02,1.836693469205086249e-02,5.382337135551334972e-02,1.205536852707644879e-01,7.617314390900675747e-02,3.669152968517286340e-02,-1.752571492297401168e-01,-3.400439898430251962e-02,-9.129152584811472959e-02,-7.176291334914836062e-02,-1.298708741988428561e-01,-1.438891495058761127e-02,-1.301395696810939140e-01,-1.183921530950520912e-01,-3.024869048781667069e-02,-1.020467383720261023e-03,-1.116422284040405680e-02,0.000000000000000000e+00,0.000000000000000000e+00,0.000000000000000000e+00,-3.469446951953614189e-18,0.000000000000000000e+00,7.170322972977007103e-02,1.211040413648442338e-01,-2.185246978175242050e-01,9.495750152629467422e-02,-1.038957963398838280e-01,-1.389918797341231083e-01,-9.720206217118665393e-03,-4.746543600151043041e-02,-8.079511245957049503e-02,2.892224789423764042e-01,2.806958856771291089e-03,-2.258390266916998623e-01,-4.027101513778874597e-02,1.386484289749445598e-02,6.262955401149866708e-02,7.584325712804163011e-02,8.730413320038259151e-02,-6.268112471427367272e-02,-5.883147248060638379e-02,-6.772995111236884691e-02,2.261518280488936106e-02,6.938893903907228378e-18,-5.204170427930421283e-18,0.000000000000000000e+00,0.000000000000000000e+00,0.000000000000000000e+00,-6.938893903907228378e-18,3.469446951953614189e-18,4.163336342344337027e-17,-8.326672684688674053e-17,2.775557561562891351e-17,5.551115123125782702e-17,1.110223024625156540e-16,1.110223024625156540e-16,3.503706659697791714e-03,3.256759679011189679e-02,-3.080826174889739200e-02,-2.078785813373518199e-02,-2.204957241437832671e-02,-1.194183016898908711e-02,-3.013824119759700437e-02,-6.603972290829063230e-02,-2.139758789964751884e-02,1.665334536937734811e-16,2.775557561562891351e-17,-8.326672684688674053e-17,8.326672684688674053e-17,-1.387778780781445676e-17,6.938893903907228378e-18,-3.469446951953614189e-18,5.204170427930421283e-18,0.000000000000000000e+00,0.000000000000000000e+00,0.000000000000000000e+00,0.000000000000000000e+00,0.000000000000000000e+00,6.938893903907228378e-18,1.387778780781445676e-17,0.000000000000000000e+00,1.110223024625156540e-16,0.000000000000000000e+00,5.551115123125782702e-17,1.665334536937734811e-16,1.110223024625156540e-16,5.551115123125782702e-17,-2.775557561562891351e-16,0.000000000000000000e+00,1.110223024625156540e-16,0.000000000000000000e+00,-5.551115123125782702e-17,5.551115123125782702e-17,-8.326672684688674053e-17,2.775557561562891351e-17,1.387778780781445676e-17,3.469446951953614189e-17,0.000000000000000000e+00,0.000000000000000000e+00,1.734723475976807094e-18,0.000000000000000000e+00,0.000000000000000000e+00,0.000000000000000000e+00,0.000000000000000000e+00,0.000000000000000000e+00,0.000000000000000000e+00,0.000000000000000000e+00,1.040834085586084257e-17,6.938893903907228378e-18,4.163336342344337027e-17,0.000000000000000000e+00,2.775557561562891351e-17,0.000000000000000000e+00,0.000000000000000000e+00,0.000000000000000000e+00,-8.326672684688674053e-17,5.551115123125782702e-17,2.775557561562891351e-17,8.326672684688674053e-17,4.163336342344337027e-17,-2.775557561562891351e-17,0.000000000000000000e+00,0.000000000000000000e+00,-6.938893903907228378e-18,3.469446951953614189e-18,3.469446951953614189e-18,0.000000000000000000e+00,0.000000000000000000e+00,0.000000000000000000e+00,0.000000000000000000e+00
0.000000000000000000e+00,0.000000000000000000e+00,0.000000000000000000e+00,0.000000000000000000e+00,0.000000000000000000e+00,0.000000000000000000e+00,0.000000000000000000e+00,0.000000000000000000e+00,0.000000000000000000e+00,0.000000000000000000e+00,0.000000000000000000e+00,0.000000000000000000e+00,0.000000000000000000e+00,5.204170427930421283e-18,-6.071532165918824830e-18,-5.204170427930421283e-18,0.000000000000000000e+00,0.000000000000000000e+00,0.000000000000000000e+00,0.000000000000000000e+00,0.000000000000000000e+00,0.000000000000000000e+00,0.000000000000000000e+00,0.000000000000000000e+00,0.000000000000000000e+00,0.000000000000000000e+00,0.000000000000000000e+00,0.000000000000000000e+00,0.000000000000000000e+00,0.000000000000000000e+00,0.000000000000000000e+00,0.000000000000000000e+00,-5.204170427930421283e-18,-5.204170427930421283e-18,5.204170427930421283e-18,1.040834085586084257e-17,0.000000000000000000e+00,0.000000000000000000e+00,1.387778780781445676e-17,6.938893903907228378e-18,1.387778780781445676e-17,0.000000000000000000e+00,-3.469446951953614189e-17,1.794359723604033174e-03,5.091827250127398119e-03,2.457067187643033335e-03,0.000000000000000000e+00,1.040834085586084257e-17,0.000000000000000000e+00,-1.734723475976807094e-18,-3.469446951953614189e-18,3.469446951953614189e-18,0.000000000000000000e+00,0.000000000000000000e+00,0.000000000000000000e+00,0.000000000000000000e+00,0.000000000000000000e+00,0.000000000000000000e+00,-5.204170427930421283e-18,-5.204170427930421283e-18,3.469446951953614189e-18,-6.938893903907228378e-18,1.040834085586084257e-17,2.081668171172168513e-17,-6.938893903907228378e-18,-4.163336342344337027e-17,-1.387778780781445676e-17,-2.775557561562891351e-17,0.000000000000000000e+00,-8.326672684688674053e-17,-5.551115123125782702e-17,-1.421183393543312690e-02,-5.554808943235531316e-02,-5.415829703824007191e-02,-1.396275678269942588e-02,0.000000000000000000e+00,-6.938893903907228378e-17,0.000000000000000000e+00,-2.775557561562891351e-17,-6.938893903907228378e-18,0.000000000000000000e+00,1.734723475976807094e-18,0.000000000000000000e+00,0.000000000000000000e+00,0.000000000000000000e+00,0.000000000000000000e+00,-8.673617379884035472e-18,1.734723475976807094e-18,6.938893903907228378e-18,-1.352004541174806757e-02,-7.318563193007110446e-03,-1.747327907814773262e-02,-7.999574563389172388e-02,8.464898888470842597e-02,-1.230175872148230043e-01,5.801575830741700912e-04,-7.290612135615182066e-02,1.577218321569930637e-01,-2.317008022241162646e-03,-1.598221963247195010e-01,6.151337500433227967e-02,-1.582129853782708317e-01,-1.267130781092128955e-01,-8.863414536642182096e-03,-5.918995023547309747e-02,-3.711180685662604506e-03,1.387778780781445676e-17,2.775557561562891351e-17,-2.081668171172168513e-17,0.000000000000000000e+00,-6.071532165918824830e-18,0.000000000000000000e+00,0.000000000000000000e+00,-5.204170427930421283e-18,0.000000000000000000e+00,1.387778780781445676e-17,-2.081668171172168513e-17,-8.345949734337720916e-03,5.521931156690890186e-03,3.847828186889967750e-02,-1.808825425661365199e-02,-2.544135393263435851e-02,-6.183991456703735734e-02,-1.472909312076997601e-02,-8.234008982859403192e-02,2.319885539327087853e-02,-7.543207941819363160e-02,-9.313388479094270034e-02,-1.830821271632619152e-01,-2.212495748424654629e-02,-5.455183638650197564e-02,5.840206503522143294e-02,4.771561736831451961e-02,-7.196036272868530648e-02,-3.215641936896543318e-02,3.593574800270413205e-02,6.437464483139093696e-02,-2.081668171172168513e-17,3.469446951953614189e-18,0.000000000000000000e+00,0.000000000000000000e+00,0.000000000000000000e+00,0.000000000000000000e+00,6.938893903907228378e-18,-2.892294311926670719e-02,-4.493770734832960856e-02,-2.262766116301803687e-02,-6.953101400820158040e-02,1.025972782699406116e-01,-7.354399809375450348e-02,-1.676489586806173548e-02,-6.720280131814568292e-02,-1.169126893879888218e-01,-7.704885522069365722e-02,1.095554314412532371e-01,5.246330423171396973e-02,-1.162489389994399436e-01,1.408980974624607363e-03,9.223568841460194623e-02,2.509157968659259108e-02,-3.791299856457398809e-02,6.744921006512805128e-03,1.538962422419544451e-01,-1.433369912377578381e-01,-8.711979042770534587e-02,8.326672684688674053e-17,0.000000000000000000e+00,-5.204170427930421283e-18,0.000000000000000000e+00,-5.204170427930421283e-18,-6.938893903907228378e-18,-6.938893903907228378e-18,-1.588360944872013736e-02,3.153797211296155423e-02,-3.895761712260521759e-02,-4.374355314933810884e-02,-2.230030583440482939e-02,-1.601546138240818040e-01,-1.155964613762072574e-01,-3.988351651716529056e-02,-1.324610777074793633e-01,-2.345601374540134954e-02,1.388808250030443281e-02,-1.409008143961230086e-01,-9.726550935421141020e-02,-7.346347101304073757e-02,2.475825003379139577e-02,-1.225095021796107353e-01,-7.513916218423143112e-02,-8.531137227645504972e-02,1.459905267921380867e-01,2.652895314335722288e-02,-5.068772371136669175e-02,1.596358085587945563e-04,0.000000000000000000e+00,1.387778780781445676e-17,0.000000000000000000e+00,1.040834085586084257e-17,2.081668171172168513e-17,-8.262431550345034070e-04,-2.824721237407101793e-02,2.815065868540383986e-02,-3.236839118784945457e-02,-4.766564447762937362e-02,4.306948448448338906e-03,1.131333086291556878e-02,9.313827858422490946e-02,-2.144288609014410873e-02,-1.505115290085448365e-01,-1.418690387908747019e-02,-1.857425384741366592e-02,6.613540624500185983e-02,-1.381584320258807952e-02,3.530637707731407171e-02,7.147849733662907379e-02,8.907255648074513532e-03,9.798902393914557529e-02,-1.447337481644236923e-02,6.420343733754194093e-02,1.274568040665226276e-02,-2.562051843803351409e-02,1.309490715405126071e-02,-1.387778780781445676e-17,0.000000000000000000e+00,-6.071532165918824830e-18,-1.387778780781445676e-17,2.775557561562891351e-17,-2.546532413059944544e-02,-5.623035646417195998e-02,-4.422236834282758378e-02,-5.000342907413524163e-03,-5.321586160737495907e-03,7.083861147246452161e-02,1.234615691837425422e-01,2.302694775636204838e-02,1.434705775883304835e-02,-2.179051597423292685e-02,-4.646121475501308051e-03,-3.161128551166730860e-02,-7.455412103755854059e-02,-5.493310083669622479e-02,-4.818904846813898413e-02,3.521777456250418936e-02,4.356700933218834310e-02,7.486292833514965328e-02,3.039563116491792241e-02,5.360385908124952470e-02,-1.528622951503654653e-02,-1.137136781467097402e-01,2.391123156237920377e-02,4.163336342344337027e-17,0.000000000000000000e+00,5.204170427930421283e-18,3.469446951953614189e-17,2.473272682254751276e-03,-9.196876787083868576e-02,-1.142489593335805492e-01,-2.478877889130498557e-02,1.968957798381847091e-02,-5.587878671157745641e-02,-5.690946213296163569e-02,2.973214381456629196e-02,1.968718962664206540e-02,1.142189062750240125e-01,6.190134873271305183e-02,6.346010424618642176e-02,1.754880926795066021e-02,-3.159862821778103292e-02,6.032514061409155470e-02,6.310239553766816556e-02,5.813604590205859179e-02,-1.033855539995960915e-01,-9.208835695987210856e-03,-1.508410237023826983e-01,-2.710669581821179563e-01,-7.937779116027829374e-02,-2.634745144472588896e-02,2.016171237464653432e-02,1.387778780781445676e-17,-1.734723475976807094e-17,-5.204170427930421283e-18,-6.938893903907228378e-18,1.279765313792591286e-02,-5.656718951853156874e-03,-1.945090483725760155e-02,-2.570732290006906562e-02,4.216344730021324982e-03,-1.912242176536671501e-02,5.113746622639386841e-02,6.594786380262951386e-03,1.498946621384361355e-01,-2.374412551428944917e-02,-2.530229308779702313e-02,3.234497005878966824e-02,1.237519797052861747e-01,2.230499804114882689e-02,2.488869836735352337e-04,7.634753056798609938e-02,6.133508781011248745e-02,5.683043945947591213e-02,1.103247910275770294e-01,4.659800693201200661e-02,4.842212897448804065e-02,-1.045705812694474601e-01,-2.811302944895904821e-02,1.310665043739492330e-02,1.387778780781445676e-17,0.000000000000000000e+00,-1.040834085586084257e-17,0.000000000000000000e+00,-2.775557561562891351e-17,-1.510134061864932264e-01,-6.835598840010245758e-02,2.555464284609551551e-03,1.309658781902191815e-01,-1.541822504372564184e-02,-5.453120980259687500e-02,8.739336549372619944e-02,8.073389814729135805e-02,7.484835152219604382e-02,7.195481633329059434e-03,-1.432164732321131728e-01,-2.870051117368244142e-02,-1.395317987669205118e-01,-8.589031995528373375e-02,-1.428306902254175559e-01,-4.188527133002239999e-02,-5.132838332699840578e-04,1.891699090093575397e-01,1.469895660149004579e-01,1.871809064743953088e-01,4.601387551042215862e-02,6.929041259035167988e-02,-1.387778780781445676e-17,6.938893903907228378e-18,-6.938893903907228378e-18,-4.336808689942017736e-18,0.000000000000000000e+00,-2.775557561562891351e-17,-7.651412556273191889e-02,5.144054114368346031e-02,-1.324277652537417249e-02,1.522640365651797556e-01,-3.136244051343217709e-03,4.384049694704181266e-02,7.236730893044282520e-02,-5.304884203286587552e-02,4.159408042705142750e-02,1.141078199321521325e-04,-1.169489457950632638e-01,-1.222263053541238487e-01,-2.030672242666935745e-01,-1.314395371817840275e-01,-9.201245779054681440e-02,8.951924946419315132e-02,-9.784465401069430968e-02,-5.023635190423458852e-02,7.948048547556413324e-02,1.220855119318757370e-01,2.185594179370672074e-01,9.449357603977773246e-02,0.000000000000000000e+00,0.000000000000000000e+00,6.938893903907228378e-18,-5.204170427930421283e-18,1.734723475976807094e-18,-6.938893903907228378e-18,-3.841614271331894592e-03,1.332268892059419452e-01,-5.892177873615381256e-02,1.079877412697432398e-01,7.648852266834738067e-02,1.282559671639713073e-01,4.916698540445830351e-02,8.468612673558174875e-02,1.423312021071107270e-01,2.248383852447521924e-03,-6.703327500176436970e-02,-1.204047252907384791e-01,-2.495494218867164715e-01,-3.725565954175480421e-02,-5.587805649467789126e-02,-3.342165419903647683e-02,7.949210663635464247e-02,-5.093016649660431217e-02,1.193397322687775319e-01,6.795260318298915192e-02,1.207764848351778192e-01,8.033576885456308880e-02,-4.163336342344337027e-17,2.081668171172168513e-17,-6.938893903907228378e-18,0.000000000000000000e+00,-3.469446951953614189e-18,1.387778780781445676e-17,2.945012172277935297e-02,-9.028774249763754645e-02,-5.869897169528076608e-02,4.193181475963986271e-02,6.509027369017107711e-02,1.450929211260130469e-01,-7.731779261690920058e-03,1.028917642966501178e-01,9.570456062326287983e-02,7.293902978385194413e-02,-8.659564095507166215e-02,-2.359456446306397170e-01,-1.975153431491522005e-01,-3.919220238065801443e-02,-1.267449779902082851e-01,-1.443335573467641186e-02,9.606568330144393819e-02,5.188780100960688202e-03,1.094160394330470631e-01,5.046721140748369749e-02,8.362536211008667064e-02,8.020532176748840225e-02,2.775557561562891351e-17,-2.081668171172168513e-17,5.204170427930421283e-18,0.000000000000000000e+00,0.000000000000000000e+00,1.040834085586084257e-17,2.501427718081781354e-02,-4.110644384907380378e-02,8.053993730352287939e-02,8.905637168181518293e-03,6.139974110526355555e-02,5.558857871454159216e-03,9.548765382269269741e-02,1.476459134783945915e-01,1.794996575975149611e-01,3.442547853722899287e-02,-2.607694756111172962e-01,-1.352477172705132125e-01,-3.004517095000469595e-02,-2.790559304035167276e-02,6.772405320025781661e-02,7.409339550477928027e-02,-4.658394666881360280e-02,1.087655466859280828e-01,4.892820744121145760e-02,-7.101171421832874753e-02,2.807090227379094999e-02,-1.552943680807217230e-03,-2.775557561562891351e-17,1.387778780781445676e-17,-1.040834085586084257e-17,0.000000000000000000e+00,3.469446951953614189e-18,-1.387778780781445676e-17,-8.890647999388343048e-02,3.025781647216962966e-02,-2.887491402090952564e-02,3.431795086304301190e-02,6.519910029913705829e-02,-5.532312161476377055e-02,6.341791657704465290e-02,-8.598109920915952831e-02,1.837600480662033298e-01,9.607208096323727187e-02,-1.313668202451970801e-01,-2.101169165465256450e-01,8.155048455707580857e-03,3.606714309331571222e-02,5.753115743289294315e-02,-3.208473340392653528e-02,-3.572211572498817933e-02,1.278578058305468446e-02,1.093671338644607860e-01,-3.752182819543212200e-02,-5.899763489408069855e-02,-8.411019622951115826e-02,0.000000000000000000e+00,3.469446951953614189e-17,2.024897230332618758e-04,0.000000000000000000e+00,-8.673617379884035472e-18,2.081668171172168513e-17,-7.687005680712134803e-02,5.437899642790430810e-02,2.355906096828885854e-02,2.961285612684327884e-03,-3.007623856714347621e-02,6.987165464759526046e-03,2.323399571447082312e-01,1.213741162483271407e-01,-5.603751570540447050e-03,2.552190396586220822e-02,-1.149463885790770190e-01,-2.895077967696035870e-02,1.184985481225986348e-01,-2.142456395119385348e-02,-4.484648817226183359e-02,-5.690694897173637079e-02,-8.660403190439824872e-02,-1.104956325117900651e-02,-2.904229884403697337e-02,2.201176334192928019e-02,-4.462601082891128057e-02,-5.219260969992575716e-02,0.000000000000000000e+00,2.775557561562891351e-17,2.352682193954770684e-03,6.938893903907228378e-18,6.938893903907228378e-18,6.938893903907228378e-18,-7.709020306828119617e-02,1.118162193830244677e-01,-2.614283413348206242e-02,8.845221706720307608e-04,1.167392449139517119e-01,4.979890197109404504e-02,1.143329255977589276e-01,-7.424694508381188274e-02,-4.259198629739474606e-03,1.878111330501919252e-03,-1.914275382951468041e-01,-6.331640465753629599e-02,-7.763377789198749879e-02,-9.875415325867976934e-02,2.961672137243332587e-02,-1.304575107613686891e-01,1.453967409334944172e-02,-1.365235237435906690e-01,-6.324996288856565840e-02,-2.975030265436778842e-02,2.153489020539616633e-02,2.363128255389562726e-02,-2.775557561562891351e-17,-1.387778780781445676e-17,-1.040834085586084257e-17,0.000000000000000000e+00,-1.734723475976807094e-18,6.938893903907228378e-18,-1.958379595325289782e-02,-7.769155567856456113e-02,-7.245161042381653704e-03,1.871227683014620169e-03,6.270414127967671725e-02,8.421618215243864558e-02,1.604225639626627453e-02,-2.710199560811771269e-02,4.264648917918625187e-02,1.320903558152607404e-01,9.938391659320838789e-02,8.096821770667506080e-03,-1.467563690722395453e-02,-1.655567192188998199e-02,-9.439568644645263129e-02,-3.489620834369766555e-02,-1.296657459901640053e-02,-1.490568897983016450e-01,-6.610123678622333021e-02,-3.295521509246959746e-03,3.785113291122996215e-02,1.190818899374880557e-02,6.938893903907228378e-17,-1.387778780781445676e-17,0.000000000000000000e+00,0.000000000000000000e+00,1.734723475976807094e-18,0.000000000000000000e+00,-4.629784150368443374e-02,-1.368480659127159216e-01,8.901873024081405350e-02,-2.060960805573724963e-02,6.954544762278747072e-04,-8.353983735417847001e-02,-6.393003954907566788e-02,2.248143757227966111e-02,1.181064295191368296e-01,1.118280856966302333e-01,2.458999486350756450e-02,-5.758818507676707887e-02,7.024764104091836547e-02,-7.644099445938717929e-02,-5.057586685124260129e-02,-4.644645695242965999e-02,3.646566859162198027e-02,2.002052344607629930e-02,-6.268051956866084809e-03,3.795297133299981723e-02,-9.874841486471865049e-02,5.676239150696246738e-03,-2.775557561562891351e-17,0.000000000000000000e+00,-5.204170427930421283e-18,-5.204170427930421283e-18,-1.734723475976807094e-18,-1.387778780781445676e-17,2.240580427668875663e-02,-3.847298621564296250e-02,3.420665292440189242e-02,-1.247814270383315882e-01,8.727318844130582676e-03,-1.199672873455032152e-02,1.954896533579275619e-03,4.596224370799517622e-02,5.129421645078557912e-02,3.085041940932176097e-02,8.781194395495478533e-02,3.264709156838335735e-02,-1.178199242459134766e-01,1.003722695233120188e-01,-9.456753001867160280e-02,-3.805091402481119989e-02,-2.695924114857461973e-02,3.568318361824007745e-02,2.395588326660219591e-02,-1.319987766810108709e-02,-2.686010170327458868e-02,1.432975681642864596e-02,0.000000000000000000e+00,0.000000000000000000e+00,-5.204170427930421283e-18,-6.071532165918824830e-18,-5.204170427930421283e-18,6.938893903907228378e-18,-4.749729620071915792e-02,6.930778506525889227e-03,-2.570961317979231220e-02,-1.724438898781127660e-02,-1.255253991301042982e-01,1.666322427238964288e-03,-4.024999656111694080e-02,9.517098872025009371e-03,-1.230284796766656363e-02,1.953730490337292069e-01,1.648405245353307125e-01,3.774594088872973430e-02,-7.120287540917968894e-02,-5.594723036081183931e-02,-5.769089230621393671e-02,2.027062695557688837e-02,-1.302425079338978553e-02,6.147979369938993965e-03,7.360292011949015611e-03,7.054290801225091001e-03,-3.415531215573502921e-03,9.439980077766293998e-03,0.000000000000000000e+00,6.938893903907228378e-18,-6.071532165918824830e-18,0.000000000000000000e+00,0.000000000000000000e+00,2.775557561562891351e-17,-3.555854863420075673e-02,-4.794815959840491304e-02,2.990718105237272217e-02,4.442328557642638565e-02,-4.382107859581468867e-02,-5.300921947660557076e-02,-4.685036583771916285e-02,-3.761109799901274364e-02,1.125110023431060702e-01,1.191756737121873189e-01,6.010590362179146773e-02,1.302033245694771968e-01,1.484698118076115958e-01,-6.771787922102079360e-02,-4.968874102764958556e-02,-5.323019458080957556e-02,-4.234515206112876573e-02,-4.882131733873060209e-02,-1.824122723846299809e-02,-8.653858417672397052e-03,9.350143861731399775e-03,2.571008999911750248e-04,3.469446951953614189e-17,1.387778780781445676e-17,0.000000000000000000e+00,0.000000000000000000e+00,0.000000000000000000e+00,3.469446951953614189e-18,1.387778780781445676e-17,6.693910754050193257e-02,-8.241931846738960454e-02,-1.850262540107207310e-01,-4.791565172454753663e-02,-5.062208389973787970e-03,7.675649148584566192e-03,-5.777866961816428837e-02,-9.779169910564414203e-02,2.253571676158502846e-02,1.424197753507109310e-01,1.334456372164423699e-01,-1.150051976744406734e-01,-8.155286099367814456e-02,-4.978836869915898022e-02,-4.660047820619819814e-02,-1.009871376541537913e-02,3.801661998291164246e-02,1.029677531053893591e-02,-5.424073101324464186e-03,1.387778780781445676e-17,0.000000000000000000e+00,3.469446951953614189e-18,0.000000000000000000e+00,0.000000000000000000e+00,0.000000000000000000e+00,0.000000000000000000e+00,-3.469446951953614189e-18,6.938893903907228378e-18,-1.387778780781445676e-17,2.775557561562891351e-17,1.308357881870210460e-02,-1.763423225414319229e-02,-4.419443043185741771e-02,-5.683313430450781523e-02,-1.066643438143445866e-01,-7.264407000161093864e-02,-9.995588592641868608e-02,-7.005716528532218712e-02,-3.463883017888985671e-02,2.780375556898917466e-06,1.579500835862235331e-02,1.026320124361512764e-02,-6.491004543900419366e-03,-2.589473301717992726e-03,-5.551115123125782702e-17,0.000000000000000000e+00,-2.775557561562891351e-17,2.081668171172168513e-17,3.469446951953614189e-18,5.204170427930421283e-18,-5.204170427930421283e-18,0.000000000000000000e+00,0.000000000000000000e+00,0.000000000000000000e+00,0.000000000000000000e+00,0.000000000000000000e+00,-1.387778780781445676e-17,-6.938893903907228378e-18,-6.938893903907228378e-17,-1.387778780781445676e-17,0.000000000000000000e+00,0.000000000000000000e+00,1.665334536937734811e-16,0.000000000000000000e+00,-1.665334536937734811e-16,0.000000000000000000e+00,0.000000000000000000e+00,-1.905298687892048592e-03,-1.903838181227732185e-02,-3.480795704966271886e-02,-2.398381369113553041e-02,-1.069597103303968066e-03,1.387778780781445676e-17,-2.775557561562891351e-17,-6.938893903907228378e-18,6.938893903907228378e-18,1.734723475976807094e-18,-6.071532165918824830e-18,0.000000000000000000e+00,0.000000000000000000e+00,0.000000000000000000e+00,0.000000000000000000e+00,0.000000000000000000e+00,0.000000000000000000e+00,0.000000000000000000e+00,-1.734723475976807094e-18,-3.469446951953614189e-18,-6.938893903907228378e-18,6.938893903907228378e-18,3.469446951953614189e-17,2.775557561562891351e-17,0.000000000000000000e+00,4.163336342344337027e-17,-4.163336342344337027e-17,-1.387778780781445676e-17,-2.775557561562891351e-17,-6.938893903907228378e-17,2.775557561562891351e-17,0.000000000000000000e+00,1.387778780781445676e-17,1.734723475976807094e-17,0.000000000000000000e+00,1.734723475976807094e-18,-6.938893903907228378e-18,0.000000000000000000e+00,0.000000000000000000e+00,0.000000000000000000e+00,0.000000000000000000e+00
0.000000000000000000e+00,0.000000000000000000e+00,0.000000000000000000e+00,0.000000000000000000e+00,0.000000000000000000e+00,0.000000000000000000e+00,0.000000000000000000e+00,0.000000000000000000e+00,0.000000000000000000e+00,0.000000000000000000e+00,0.000000000000000000e+00,0.000000000000000000e+00,-4.336808689942017736e-19,-4.336808689942017736e-19,-4.336808689942017736e-19,0.000000000000000000e+00,0.000000000000000000e+00,0.000000000000000000e+00,0.000000000000000000e+00,0.000000000000000000e+00,0.000000000000000000e+00,0.000000000000000000e+00,0.000000000000000000e+00,0.000000000000000000e+00,0.000000000000000000e+00,0.000000000000000000e+00,0.000000000000000000e+00,0.000000000000000000e+00,0.000000000000000000e+00,0.000000000000000000e+00,0.000000000000000000e+00,0.000000000000000000e+00,4.336808689942017736e-19,8.673617379884035472e-19,4.336808689942017736e-19,-1.734723475976807094e-18,1.734723475976807094e-18,0.000000000000000000e+00,5.204170427930421283e-18,1.734723475976807094e-18,-6.938893903907228378e-18,-3.469446951953614189e-18,0.000000000000000000e+00,1.771672495277533399e-02,5.027448047951202370e-02,2.426000928427372166e-02,3.469446951953614189e-18,8.673617379884035472e-19,1.734723475976807094e-18,-8.673617379884035472e-19,1.301042606982605321e-18,4.336808689942017736e-19,0.000000000000000000e+00,0.000000000000000000e+00,0.000000000000000000e+00,0.000000000000000000e+00,0.000000000000000000e+00,0.000000000000000000e+00,4.336808689942017736e-19,2.045255797200527543e-03,1.089899308950549248e-04,0.000000000000000000e+00,0.000000000000000000e+00,0.000000000000000000e+00,-6.938893903907228378e-18,6.938893903907228378e-18,6.938893903907228378e-18,0.000000000000000000e+00,-6.938893903907228378e-18,-7.733145446736068573e-03,-4.497823161106000861e-02,-4.079262507278204331e-02,1.889729082834419593e-03,8.845612530426760767e-05,6.938893903907228378e-18,0.000000000000000000e+00,-1.387778780781445676e-17,3.469446951953614189e-18,0.000000000000000000e+00,-1.734723475976807094e-18,3.469446951953614189e-18,-2.168404344971008868e-18,0.000000000000000000e+00,0.000000000000000000e+00,0.000000000000000000e+00,0.000000000000000000e+00,-4.336808689942017736e-19,1.597165739683238488e-03,2.457456246688066032e-04,-1.734723475976807094e-18,-1.734723475976807094e-18,0.000000000000000000e+00,-6.938893903907228378e-18,9.189009000367235475e-03,2.616705285140838444e-03,4.023024076335392218e-02,4.860950810403297240e-02,1.853367280336510464e-02,-8.246438326686408860e-03,1.021201229843198000e-02,1.780256066858557085e-02,1.683372169992711220e-02,3.523285831435962745e-03,-2.009713091556693254e-02,-5.151857869654789812e-02,-2.230892168896313546e-02,-7.453384891212798402e-04,3.378595210358249779e-04,-2.269830251267923593e-03,2.602085213965210642e-18,-4.336808689942017736e-19,0.000000000000000000e+00,0.000000000000000000e+00,4.336808689942017736e-19,-4.336808689942017736e-19,0.000000000000000000e+00,-5.204170427930421283e-18,-5.188444430939848431e-03,-3.044952386426619945e-03,-4.164754171414765394e-02,-2.601668762563751763e-02,6.995616593631223679e-03,-3.111047848160701859e-02,5.537039082264644252e-02,3.820707434952632514e-02,-1.393167165981669745e-02,-6.213432416528814894e-02,-2.410225892034795203e-03,1.398276889922171751e-02,1.421153744323380708e-02,-1.217123193650457291e-02,-1.641527754704129316e-03,1.640640167412470846e-02,2.266543923678684264e-02,-1.150863872854179445e-02,1.180152522001903792e-04,-3.222927819063241273e-03,-1.285366737672184387e-02,-1.734723475976807094e-18,0.000000000000000000e+00,0.000000000000000000e+00,0.000000000000000000e+00,-1.734723475976807094e-18,0.000000000000000000e+00,3.469446951953614189e-18,3.247581068117698366e-03,1.407322800614323882e-02,-2.815869817854461596e-02,-3.440645615116486034e-02,-2.486066366199830152e-02,-1.612856327983081678e-02,-1.891513059152236109e-02,9.069748004745289971e-03,-2.252375099588692364e-02,-1.698409493142390148e-02,6.418774391941708957e-02,5.801010624518479486e-02,6.049893988935134415e-02,3.476807987905718850e-02,1.507083318577852327e-02,-2.795490976370637939e-02,-3.458636633304642410e-02,-2.891302613181292308e-02,-7.679950919284041222e-02,-9.166665846475666526e-03,1.650898580168876778e-02,0.000000000000000000e+00,4.336808689942017736e-19,0.000000000000000000e+00,4.336808689942017736e-19,0.000000000000000000e+00,3.469446951953614189e-18,-1.710366794299988252e-03,1.515132554579176269e-02,2.171735307248042618e-02,-9.800220549372323786e-04,-2.783526804142158473e-02,-4.021072902562988771e-02,-1.647515385961660639e-02,4.240772469967991898e-02,-1.136000203893612615e-02,1.417012382074107901e-02,-7.309816897033194483e-03,1.724134711951430532e-03,3.350811422872024270e-02,2.887779303923534990e-02,-1.737244905150114871e-02,-1.808040648087781699e-02,-2.492843360396715391e-02,-1.716070089678003313e-02,7.456811722299019896e-03,4.380853399793212255e-02,-2.695698359494149224e-02,-8.824335323756801741e-03,-3.469446951953614189e-18,-1.734723475976807094e-18,0.000000000000000000e+00,-8.673617379884035472e-19,0.000000000000000000e+00,-2.141672091830647967e-03,-4.902371749482208052e-03,-5.521875467188526454e-03,-3.260823762085696131e-05,-2.717115497160509097e-02,-1.568384106892439789e-02,2.063882198872782348e-03,-3.042294069484278995e-02,-2.144656133094006295e-02,2.457148706815408951e-02,9.817464811708156991e-03,2.443131341789789301e-02,5.873238310941844564e-02,4.608218740014616288e-02,-7.969474588738478804e-05,-3.390052284533555393e-02,-2.125646383084649552e-02,-1.774713424727970834e-02,2.831723581535816603e-02,4.206299199313835030e-02,4.039829220048422875e-02,-1.361736944129367938e-02,2.458094168833455107e-02,3.469446951953614189e-18,-1.734723475976807094e-18,9.187049978951531901e-03,0.000000000000000000e+00,-5.515525512693304766e-03,-5.234554060454851832e-03,-8.348635510288429651e-03,1.056413407207132393e-02,-1.162215410445657793e-02,-1.827754361269354200e-02,4.202609130681905780e-02,4.873975923289217832e-02,1.427352062749106393e-02,-2.969317426592721354e-02,3.912503267921925432e-03,3.248652612109678706e-02,5.415853693594652185e-02,5.414109825899308254e-02,1.619816020600928219e-02,5.834577878714669597e-02,7.618727111554020326e-02,1.519029630394856667e-02,1.248312894351450569e-02,1.352531618840206729e-02,6.623513467374966823e-02,-4.218565755409674212e-02,-2.632109691051203598e-02,2.220281982022252742e-03,1.040834085586084257e-17,-8.673617379884035472e-19,-4.336808689942017736e-19,3.469446951953614189e-18,6.604658335268511968e-03,-4.769706445698712605e-03,-6.471416839737328952e-03,2.950257290403201366e-02,4.761678603503165241e-02,4.765561063497615601e-02,3.807730656262373059e-02,2.308974979260907875e-02,2.763638086207444514e-02,-1.108801071992839352e-02,2.181505643893330570e-02,2.016419571044360259e-02,1.393825266142332923e-02,4.885365373352605622e-02,5.177864432564278224e-02,5.363647584603001284e-02,8.889321959230228609e-02,4.134807405692758620e-02,8.662142386199025990e-02,-7.526397230854783849e-03,1.377671071986955043e-03,-5.130961187671490009e-02,-1.337624095950687084e-02,-4.164022953669077598e-05,0.000000000000000000e+00,-8.673617379884035472e-19,0.000000000000000000e+00,-3.469446951953614189e-18,5.507613621059924414e-02,1.960198012165793174e-02,6.695200059042033525e-03,1.604713443484414442e-02,5.922789858852302997e-02,1.663268423501784721e-02,2.870460617601745812e-02,3.902645404286567143e-02,3.143560768553396723e-02,-1.452357338368434961e-02,8.868733459117511542e-03,1.868629221216139280e-02,4.936462730082811362e-02,4.363190566786911972e-02,5.954883189532554633e-02,2.959301813362389885e-02,7.709037411068703216e-02,6.565145858148320468e-02,1.045181540331471121e-01,-1.895214316324500547e-03,4.841335536046081911e-02,-4.398880103395619301e-03,-1.765428219576390539e-02,-5.304028281126654115e-02,5.204170427930421283e-18,-8.673617379884035472e-19,0.000000000000000000e+00,-3.469446951953614189e-18,-5.563591463686399716e-03,-8.752680153111994099e-03,-1.054454238293175625e-02,-3.458282138733107663e-02,8.692436807139242161e-03,-1.754783295947916211e-02,3.288332472811265894e-02,1.048868686395807576e-02,5.487800050681113095e-05,-2.469968249472784261e-02,-1.972349032098147381e-02,2.037186926668430043e-02,3.098059840815418908e-02,6.393567234274125100e-02,4.409730444181549774e-02,3.131628749945164492e-02,-1.317905916619577927e-02,-1.211602033652856014e-02,2.885009719579967324e-02,6.705228766125448381e-03,7.305928672052609818e-02,9.407835115783977353e-02,6.720875645502842610e-02,-1.844534873493031135e-02,1.734723475976807094e-18,-2.602085213965210642e-18,0.000000000000000000e+00,8.673617379884035472e-19,-7.157130814644335759e-03,3.147848634426103631e-02,2.267000825575875289e-02,-5.970427496298007231e-02,8.038998415102582840e-03,-1.061888496144035299e-02,-2.700024769116382561e-02,1.123553443850518196e-02,-1.724017960248493131e-02,-5.364112638260032373e-03,-7.936857377475875497e-03,-1.320660962904322139e-02,-3.290591202392308123e-02,-8.979429165698910031e-03,-2.133906919309269679e-02,-9.266227345408384330e-03,1.607826224969703677e-02,-4.178241370936836008e-02,3.653082108917030113e-02,6.247362182185967061e-03,6.661685179350937402e-02,9.369440758921893098e-02,5.032939099586464238e-02,-2.832857588155862638e-02,-1.734723475976807094e-18,8.673617379884035472e-19,4.336808689942017736e-19,-4.336808689942017736e-19,-3.354842787880060045e-03,1.111082999216655293e-02,6.405448600250977786e-02,-8.481760906075413997e-03,-2.408585615261185642e-02,-6.174646229199408365e-02,-6.873122154585599441e-02,-1.085015014102248820e-02,-3.848060714491161050e-03,-1.033387704738475410e-02,-9.628051449283345220e-03,-1.624667259669530794e-02,-5.750533593584011838e-02,-6.447597497579893311e-02,-8.977583090960053469e-02,-2.920601728511006134e-02,2.281275166871710169e-02,-3.784954171625604102e-02,2.647833838378432780e-02,3.447972821623127015e-02,2.146665537644448785e-02,2.917559177156997530e-03,-4.381418021036193045e-02,-2.550035949370191291e-02,-3.469446951953614189e-18,-4.336808689942017736e-19,0.000000000000000000e+00,-8.673617379884035472e-19,-3.469446951953614189e-18,-4.261671817434593834e-03,-1.015734082522862097e-01,2.889445349190000734e-03,-1.290381613436522579e-02,-3.746752469804864871e-02,-7.454325657518168224e-02,-5.421141820091616992e-02,-6.341088017316726111e-03,-3.534950018826120421e-02,1.557370690099275229e-02,-1.870289481302400691e-02,-9.762926668791740981e-02,-1.115826392640828502e-01,-1.729602977964340982e-01,-7.368159882852286235e-02,2.900688608310009187e-02,-2.689148156744070040e-02,3.036335573444479130e-02,6.462257637784013520e-02,5.015515535952869142e-02,-5.705536848229053604e-03,6.309035849844060739e-02,2.376185136680530885e-03,1.734723475976807094e-18,-1.734723475976807094e-18,0.000000000000000000e+00,0.000000000000000000e+00,-1.734723475976807094e-18,-1.387778780781445676e-17,-5.162218002981698584e-02,2.164996428439935894e-02,-1.992920690336136280e-02,7.187208029189956493e-03,-7.815901359253143998e-02,-5.174388084551936884e-02,-5.897575450507361317e-02,-1.506093918957386937e-02,1.112287702375105991e-02,-1.095740558988255176e-01,-1.444306035403935262e-01,-1.319192856064957953e-01,-1.170871254559128771e-01,-5.564744434878075852e-02,1.921171430474138964e-02,3.502058570923710645e-02,1.919889852994402513e-02,4.412199053863057052e-02,-2.867611719740120746e-03,8.669092538020367611e-03,2.367657007906653899e-02,1.794075935345801343e-02,-6.938893903907228378e-18,0.000000000000000000e+00,0.000000000000000000e+00,-1.301042606982605321e-18,0.000000000000000000e+00,3.469446951953614189e-18,4.514644439469250869e-03,-5.574553552137179180e-03,-9.947191323573800759e-03,9.910497343544266702e-03,3.570318656082788200e-03,-2.752752004894504223e-02,-1.816850054093951949e-02,2.646065478330013668e-02,-3.282899577713606354e-02,-1.399294994772266043e-01,-9.648818870037575990e-02,-7.676535908589592061e-02,-8.504292702007530680e-02,-7.287858641942711324e-02,-1.308531534186177514e-02,3.186413879106397840e-03,-2.930437717018050114e-03,-1.370770273484900326e-02,1.326521682184690631e-02,6.471151323275387002e-03,6.190094459536102378e-02,-1.411755325537200623e-02,5.204170427930421283e-18,2.375559276025878980e-03,0.000000000000000000e+00,-1.734723475976807094e-18,0.000000000000000000e+00,-1.439784811670383191e-02,2.865438790701455019e-02,6.269995110027931640e-03,-3.171647883639960863e-02,7.100472162683280075e-03,4.729170063158261161e-03,4.360266545024638063e-03,3.905568559065544787e-02,2.337129174708063584e-02,-1.433588376973997380e-02,-7.195841393782362316e-02,-3.780266039077073703e-02,-2.515687059236638295e-02,-1.196769785987519819e-02,-3.332052638845769965e-02,-6.886412511296227668e-02,6.913154066710336387e-03,-2.207278905751119263e-02,3.108547643512288294e-03,4.393235280839667689e-02,-9.942950543880890724e-03,1.919646940280533842e-02,2.124988733615311431e-02,-1.734723475976807094e-18,2.760108476454593493e-02,-1.734723475976807094e-18,0.000000000000000000e+00,1.734723475976807094e-18,-3.336589943616267290e-02,5.046042952198168119e-03,-4.404546435061888754e-02,-5.397827692621562368e-02,-1.665145908421258869e-02,3.908344486782572291e-02,1.945745776577911812e-02,1.445172829563035055e-02,-4.364754587908764583e-02,-4.915381819799763408e-02,-6.818457513211539922e-02,-8.769927112349343301e-02,-6.308596248226991388e-02,-1.572726569518106965e-02,-7.639230396090795905e-04,-5.687015544514159582e-02,-2.445199500929623460e-02,-2.717758415916834980e-02,-1.763514495747380006e-02,2.270433951360323332e-02,1.835754831998452630e-02,-5.209585370196063991e-02,-2.864163646841760488e-02,0.000000000000000000e+00,2.168404344971008868e-18,0.000000000000000000e+00,0.000000000000000000e+00,-6.938893903907228378e-18,-7.774639721748233256e-02,7.352442501795558583e-02,-4.474923466579716277e-03,-1.520122854856062466e-02,3.807184690599915711e-02,4.223803005412983536e-02,1.236415453413289289e-02,1.777116371550757634e-04,-2.305327776069202028e-02,1.350151493677134718e-02,-2.507823366924635811e-02,-7.617885902596197023e-02,-2.653498865446873856e-02,-2.562975925116302289e-02,1.607171853694715907e-02,-3.034722182921719552e-02,-1.857540471397853971e-02,1.836364624945185930e-03,-1.094865361632145137e-02,-1.071238730320446010e-02,1.717219517802646978e-02,-1.782004737608090458e-02,-1.815490547550533545e-02,-1.734723475976807094e-18,-8.673617379884035472e-19,0.000000000000000000e+00,0.000000000000000000e+00,3.469446951953614189e-18,-1.926823234046122491e-02,2.886507541410565994e-02,1.636556743439547545e-02,4.039926980799295186e-04,4.383976367291898824e-02,6.764910355426256849e-04,2.547461951923424284e-02,9.177440100755726582e-02,1.060255330033931936e-01,9.572884733668529655e-02,2.911416361262822439e-02,-4.993503981685037951e-02,-1.144737957422818642e-02,-2.216924254322666377e-02,-1.481387153169050341e-02,2.606790905593879548e-02,2.651217205031003443e-03,-2.945483643694071785e-02,-9.477549786043332897e-03,-1.810908382803664771e-02,2.488600650968446348e-03,3.312892125111226507e-04,-1.387778780781445676e-17,1.734723475976807094e-18,0.000000000000000000e+00,4.336808689942017736e-19,0.000000000000000000e+00,-6.938893903907228378e-18,5.208137178306839615e-03,-1.203334198597419413e-02,1.512656654339709222e-02,3.803055348904599287e-02,1.049368133032040629e-01,1.990806495954396127e-02,4.355275737784535667e-02,9.916446255317534764e-02,1.003798293472013964e-01,1.120730396073718604e-01,7.425812121439942515e-02,2.561293448621382307e-02,2.927665663406578411e-02,1.483183216516711922e-02,1.213420465519837732e-03,-1.495349731420284045e-02,-4.622958768317621259e-02,-1.742304457265270168e-02,-3.180459814948702335e-02,-2.881192674825126115e-02,-6.851216899726331883e-03,3.918988412950064754e-03,0.000000000000000000e+00,7.018087879277586094e-02,4.336808689942017736e-19,-4.336808689942017736e-19,0.000000000000000000e+00,3.469446951953614189e-18,-6.938893903907228378e-18,8.317098413717222138e-04,8.953728628244728149e-03,5.796449063785201472e-02,5.712974891232197594e-02,6.107940149212784386e-02,4.799716409638334069e-02,4.169821281344426867e-02,6.201420842191639193e-02,5.905623370069718048e-02,9.682790578877278898e-02,7.463068726656560403e-02,3.692168175585575085e-02,1.286700797173379041e-02,6.243484811760457998e-03,-1.561775990687615245e-02,-1.552471092754481585e-02,-2.944991193512366823e-03,-5.996410045888574125e-02,-3.560251686846706287e-02,1.785978765955027747e-02,1.385750439962980113e-02,-6.938893903907228378e-18,1.294245570289674629e-02,-4.336808689942017736e-19,0.000000000000000000e+00,0.000000000000000000e+00,3.469446951953614189e-18,-3.469446951953614189e-18,1.258264799553043822e-03,1.677638788293681071e-02,3.748922890474951086e-02,7.322852422786338411e-03,2.179879281979033023e-03,4.559104654871092704e-02,8.479678315435459912e-03,2.684316905637630646e-02,4.120119947532457916e-02,5.015342989548568498e-02,-1.660985928823383029e-03,-7.143561363361111693e-03,-4.966491546463318307e-02,-1.691068862380934457e-02,-1.369520641693022442e-02,1.050059773635952931e-03,-5.900500328766315750e-02,-8.885258130517888209e-02,-2.688813132573363018e-02,7.810690855247676839e-03,3.774135986968872591e-04,-1.734723475976807094e-18,0.000000000000000000e+00,0.000000000000000000e+00,0.000000000000000000e+00,0.000000000000000000e+00,-2.602085213965210642e-18,-3.469446951953614189e-18,2.365744160281898351e-03,3.747708052558751390e-03,1.805922780676901332e-02,-1.605259092809872140e-03,-6.128306549593584562e-02,-9.659045901296309244e-02,-2.686739734683062097e-02,-2.309606353185194444e-02,-1.625152414395036882e-03,-1.095559158203460171e-03,1.620403585370965016e-02,2.788913366887908751e-02,1.304781950111952304e-03,2.265281030432394344e-02,-1.859594850952886805e-02,1.004919015256841575e-02,2.914994779329171254e-02,9.153842794741746947e-05,-3.587416148698049922e-03,-1.074921143820767311e-03,-6.938893903907228378e-18,8.673617379884035472e-19,8.673617379884035472e-19,0.000000000000000000e+00,0.000000000000000000e+00,0.000000000000000000e+00,-4.336808689942017736e-19,-8.673617379884035472e-19,-6.491507130492173150e-03,-1.277341015103853304e-02,-4.146620888773499408e-03,-1.315685178454296944e-03,-2.691278067959622378e-03,-5.493622416145284293e-02,-6.410044488060197276e-02,-1.852313459626545727e-02,-4.328132625995020910e-02,-3.671042458030181199e-02,-1.635339450218760426e-02,-2.724177546732654831e-02,-1.328443583735541833e-02,-4.162805736863769979e-03,-4.552788584333611333e-03,-3.978139641060279841e-04,-6.938893903907228378e-18,3.469446951953614189e-18,-1.040834085586084257e-17,1.734723475976807094e-18,-2.602085213965210642e-18,0.000000000000000000e+00,4.336808689942017736e-19,0.000000000000000000e+00,0.000000000000000000e+00,0.000000000000000000e+00,0.000000000000000000e+00,0.000000000000000000e+00,-1.406612214896301935e-02,-2.629601533391608473e-02,-1.270136944633899756e-02,-1.757384324106440326e-03,0.000000000000000000e+00,6.938893903907228378e-18,-6.813974131437583459e-03,-1.320247656703926742e-02,-6.659401964923358785e-03,-4.163336342344337027e-17,2.775557561562891351e-17,4.163336342344337027e-17,-2.775557561562891351e-17,-6.938893903907228378e-18,-2.775557561562891351e-17,1.040834085586084257e-17,-1.040834085586084257e-17,-3.469446951953614189e-18,-3.469446951953614189e-18,-5.204170427930421283e-18,-1.301042606982605321e-18,-4.336808689942017736e-19,0.000000000000000000e+00,0.000000000000000000e+00,0.000000000000000000e+00,0.000000000000000000e+00,0.000000000000000000e+00,0.000000000000000000e+00,0.000000000000000000e+00,-1.734723475976807094e-18,-8.673617379884035472e-19,-1.734723475976807094e-18,0.000000000000000000e+00,-3.469446951953614189e-18,-3.469446951953614189e-18,0.000000000000000000e+00,-6.938893903907228378e-18,0.000000000000000000e+00,0.000000000000000000e+00,3.469446951953614189e-18,1.040834085586084257e-17,-6.938893903907228378e-18,1.734723475976807094e-18,-1.734723475976807094e-18,0.000000000000000000e+00,1.734723475976807094e-18,8.673617379884035472e-19,-1.734723475976807094e-18,0.000000000000000000e+00,0.000000000000000000e+00,0.000000000000000000e+00,0.000000000000000000e+00
0.000000000000000000e+00,0.000000000000000000e+00,0.000000000000000000e+00,0.000000000000000000e+00,0.000000000000000000e+00,0.000000000000000000e+00,0.000000000000000000e+00,0.000000000000000000e+00,0.000000000000000000e+00,0.000000000000000000e+00,0.000000000000000000e+00,0.000000000000000000e+00,1.387778780781445676e-17,6.938893903907228378e-18,-1.387778780781445676e-17,-1.387778780781445676e-17,0.000000000000000000e+00,0.000000000000000000e+00,0.000000000000000000e+00,0.000000000000000000e+00,0.000000000000000000e+00,0.000000000000000000e+00,0.000000000000000000e+00,0.000000000000000000e+00,0.000000000000000000e+00,0.000000000000000000e+00,0.000000000000000000e+00,0.000000000000000000e+00,0.000000000000000000e+00,0.000000000000000000e+00,0.000000000000000000e+00,0.000000000000000000e+00,-1.387778780781445676e-17,2.081668171172168513e-17,0.000000000000000000e+00,1.387778780781445676e-17,4.163336342344337027e-17,-1.110223024625156540e-16,5.551115123125782702e-17,0.000000000000000000e+00,-2.775557561562891351e-17,2.220446049250313081e-16,2.775557561562891351e-17,1.443614485584077123e-02,4.096522831894391925e-02,1.976781877944960852e-02,1.387778780781445676e-16,-5.551115123125782702e-17,4.163336342344337027e-17,1.387778780781445676e-17,-2.775557561562891351e-17,0.000000000000000000e+00,0.000000000000000000e+00,0.000000000000000000e+00,0.000000000000000000e+00,0.000000000000000000e+00,0.000000000000000000e+00,0.000000000000000000e+00,-1.387778780781445676e-17,-2.081668171172168513e-17,1.387778780781445676e-17,1.387778780781445676e-17,-1.110223024625156540e-16,5.551115123125782702e-17,-1.665334536937734811e-16,-5.551115123125782702e-17,-1.110223024625156540e-16,1.110223024625156540e-16,-1.110223024625156540e-16,2.220446049250313081e-16,-2.139981733963569610e-03,-1.197644055896684989e-02,-1.285833852696427471e-02,-1.261441833675658319e-02,-9.541300903712635062e-04,-1.676334608788243585e-03,-2.768691311148430145e-03,-5.386771618889896196e-04,1.110223024625156540e-16,0.000000000000000000e+00,2.775557561562891351e-17,-2.081668171172168513e-17,0.000000000000000000e+00,0.000000000000000000e+00,0.000000000000000000e+00,0.000000000000000000e+00,0.000000000000000000e+00,-8.542879041731593626e-03,-5.717804771742725223e-02,0.000000000000000000e+00,0.000000000000000000e+00,-5.551115123125782702e-17,-7.957659666931649056e-02,9.397324403671702964e-02,4.024513848813499051e-02,-3.952429957908321079e-02,1.692349368218821759e-01,1.560844489214767705e-01,-1.552675808098251675e-01,5.232105003791964748e-02,-3.707080280947774864e-02,-1.943328037711959944e-01,-3.444159022253884261e-01,3.490203390449952980e-02,1.465858731255874625e-01,-1.461688147042363439e-01,-3.436421439606418549e-02,-7.056418435572966996e-02,-1.136367176830777037e-01,9.084507803723063102e-02,-1.387778780781445676e-17,0.000000000000000000e+00,0.000000000000000000e+00,-1.387778780781445676e-17,6.938893903907228378e-18,-7.010322864904688922e-03,-2.775557561562891351e-17,-5.551115123125782702e-17,-4.352671358460624695e-03,-3.584798565537461457e-02,-6.396968421075288624e-02,7.895695030951255244e-02,1.505798402446344442e-01,5.127072581398350870e-02,-1.762864661160157276e-02,3.511257238812302006e-01,-9.499999926149738094e-02,3.298788953082254505e-02,-3.222427261281084476e-01,8.221825403390603526e-02,-3.432202067323347761e-01,1.470245038013984207e-01,1.492678317762508033e-01,-1.938392986617190061e-01,5.821452779201474748e-02,5.866301187964007013e-02,1.206228379081297764e-01,-6.764215790354323465e-02,-2.775557561562891351e-17,0.000000000000000000e+00,0.000000000000000000e+00,0.000000000000000000e+00,0.000000000000000000e+00,-2.704447021503721127e-02,0.000000000000000000e+00,-9.961352046172622376e-02,-4.828863164968222321e-03,1.593803780728657582e-01,-5.918434972432851104e-02,-2.283323330208815172e-01,2.413840846354766145e-01,-1.434953909386016413e-01,-1.535259083086512599e-01,4.371453457101792672e-02,1.377032409256233048e-01,2.636459708485147102e-01,1.120961958464114505e-01,-1.248309970094712007e-01,2.785013930388609005e-01,-1.129094731653328409e-01,-2.526899679026031187e-01,-1.337750662575540872e-01,1.697411881719146365e-01,-3.186444663664456112e-01,-2.534623517143064220e-01,2.302515629742779568e-01,-2.775557561562891351e-17,-1.387778780781445676e-17,0.000000000000000000e+00,-1.387778780781445676e-17,4.163336342344337027e-17,-5.551115123125782702e-17,-1.601321716844683607e-02,4.188638472560779480e-02,1.528749516605180103e-01,-2.067226366809236104e-01,-1.907873393420453922e-01,1.893866541043651708e-01,-1.354186259883906063e-01,2.150701591494116327e-01,-5.106780489801401313e-01,1.168183798093014314e-01,2.469677195173425321e-01,-3.937092382507367816e-01,8.470851063173601148e-02,-5.060931373557882307e-02,5.505699571331418296e-02,-1.651476971441789843e-02,4.164808813564735424e-02,5.898508866550389307e-02,1.716224815947899884e-01,-2.577862151444332284e-02,-5.464761471598655884e-02,-2.078463510717827867e-01,-3.043022865875771865e-02,-2.775557561562891351e-17,0.000000000000000000e+00,-2.775557561562891351e-17,2.775557561562891351e-17,1.665334536937734811e-16,-1.335437762919278182e-02,7.289338574284420780e-02,-5.450650155248215611e-02,-1.542406139638048401e-01,-3.226125660592480404e-01,-4.748013041318066563e-02,-6.475669325310656754e-02,2.181411880098149680e-01,1.414591327209739902e-01,-4.922830708117686971e-02,1.039127726878910779e-01,3.489315412899407498e-02,-8.111685525999337565e-02,-5.473747735711342877e-02,2.672458551658402071e-01,7.208676929373880604e-04,-1.286844914461487965e-01,-1.712388294267701561e-01,-2.042007784599706444e-01,2.162311312502596117e-01,-3.137836441691654876e-02,4.819902940016895787e-02,-1.357827370197095540e-02,-1.499658958319799451e-04,-1.387778780781445676e-17,-1.387778780781445676e-16,-2.220446049250313081e-16,1.110223024625156540e-16,-2.220446049250313081e-16,-7.542271408330902815e-02,-1.272220179724126154e-02,1.559950335370008379e-01,-1.151350708740059847e-01,-7.328570818179958035e-02,-1.487038758514232506e-01,1.116301333982828714e-01,2.419399928318133330e-02,1.561281671509184843e-02,-4.424511266143271726e-02,2.370359132067609842e-01,-4.725511137374827086e-02,4.782623572593022732e-02,3.719551661192406211e-01,-9.345142948431650609e-02,1.808210219876594804e-01,1.525439056990808839e-01,1.287622310246743229e-01,-5.119088133315985445e-02,-2.358483207660073688e-01,-1.036167520803473185e-01,-6.729711724685227825e-03,-1.016732243646048528e-02,6.938893903907228378e-18,8.326672684688674053e-17,5.033991812658594744e-02,5.939213808617394008e-03,9.294714546608684458e-03,-1.840982919537093032e-02,7.429081925683322929e-02,-2.711258859299555679e-01,-1.022317620023227569e-01,1.339808399270092654e-01,-2.947400117478193859e-01,-4.593240821488256409e-01,-4.011487170012695280e-02,2.634291499160164030e-01,3.622536171566403951e-02,-3.710225880464701476e-01,1.863422951532993643e-01,2.720459492071403140e-01,-5.757358938789994274e-02,-3.667734707436198782e-02,2.480877227691600240e-01,7.434757980501929819e-03,-7.847736900339308264e-02,9.705613516003697150e-02,-6.084731035054824488e-02,-6.118471206456507772e-02,-1.973109248108018132e-02,-6.590978169299377409e-04,1.387778780781445676e-17,-2.775557561562891351e-17,2.604778744365199294e-01,1.252634486291757110e-01,5.240149783862457777e-02,1.786714805672441342e-01,6.006753385520541277e-02,-1.215821248798524268e-01,-2.134890090479999447e-01,-2.635793207654709702e-01,1.333222872172312723e-01,-2.694313846298388437e-01,2.448661894999881738e-02,-1.844828724118823260e-01,1.409732428856980135e-01,-4.409832154365167511e-02,-2.408284575379426862e-01,1.141049950902380816e-01,2.714137937059735856e-02,5.461025144485259775e-02,1.868822811247910498e-01,-2.157918281537037353e-01,2.896757233448528090e-01,2.140842973991707865e-01,-1.189207300826788938e-02,-1.102061462633311395e-01,-2.860050774402242424e-02,5.551115123125782702e-17,-3.469446951953614189e-17,-8.326672684688674053e-17,-1.110223024625156540e-16,-1.907044770579375825e-01,-4.159897090246818530e-01,-2.241015280762333195e-01,-2.127490535665281235e-01,3.030802059508039825e-01,-3.447441798652117750e-02,1.048360243420011773e-01,2.214828460171573976e-01,-9.838273564855004594e-03,-4.046232739516546495e-01,-6.289356438458515441e-02,-1.768324671427405903e-01,-4.196626962805019012e-01,1.501501877289768139e-01,1.241335941598002979e-01,9.168762895363979926e-02,2.790418842736920868e-01,3.001956051311860940e-01,2.116743276493162629e-01,9.123491838214459193e-02,3.890188181494691477e-02,-1.701947685500657670e-01,-9.601610426232043416e-02,1.221697022217133055e-02,2.775557561562891351e-17,-2.081668171172168513e-17,1.387778780781445676e-17,1.665334536937734811e-16,-2.101374601352871963e-02,2.401041463510443230e-01,-3.175937859992050694e-02,1.098174367313017319e-01,5.716443806682480755e-02,-1.401477568215125924e-02,3.347163672844599702e-03,-2.520384862214406496e-01,1.777018647370578464e-01,-6.111248133466329335e-02,-9.253412469635180493e-02,-1.856484615609352018e-01,-2.509309674134230228e-01,-3.789639486342588626e-02,-2.015664722211432114e-01,-4.945327549021291680e-02,-5.078802793269310278e-02,-1.262778986605161968e-02,2.060440947936190703e-01,-1.623069371463623511e-01,1.112854864479335681e-01,4.145379107690498888e-01,4.521518307874394793e-02,-3.033300252187925983e-01,4.163336342344337027e-17,-1.387778780781445676e-17,-1.387778780781445676e-17,-5.551115123125782702e-17,1.656842457144731551e-01,8.836220284357643173e-02,5.351055826948480920e-02,3.271956236347822178e-01,-2.020160371566583069e-01,-1.294266402649446590e-02,-2.246635215931437335e-01,5.313434641594283470e-02,-1.245805785155518208e-02,-1.432316337624098823e-01,-2.294557681426891982e-01,1.746140834317126966e-01,-6.593327582957293487e-01,-1.626687951707403990e-01,1.610576740634561688e-02,8.677250269397407401e-02,1.762087011759405630e-01,1.044769313285853762e-02,-5.532206979547593662e-03,6.199250760883125988e-01,2.619281956404049261e-01,-5.633990322974291587e-03,-1.134222333722472165e-01,-1.697558121299872491e-01,6.245004513516505540e-17,0.000000000000000000e+00,0.000000000000000000e+00,2.775557561562891351e-17,-3.949991216870931687e-01,-1.512273330261382220e-02,2.506338558191589794e-02,-4.709325582152790179e-02,8.254417075699782558e-02,2.992300420116396076e-01,2.243617818452925405e-02,-2.638340392236435683e-01,2.114883495593632978e-01,1.456290781914777455e-01,-1.826171608312581185e-01,-3.131826370197847709e-01,-3.067839410672892342e-01,-3.049208228952249300e-02,1.970018171915062233e-01,2.606904405758492249e-02,1.604066703869160282e-01,7.292290399549949953e-02,3.625930502048928528e-01,1.945110898051294335e-02,1.663937183098398442e-01,8.762283604751242017e-02,8.001845214682123952e-02,-2.775557561562891351e-17,-1.387778780781445676e-17,0.000000000000000000e+00,0.000000000000000000e+00,5.551115123125782702e-17,-7.319311720672491695e-02,-3.994327214218984512e-02,1.322236256317199654e-01,1.239476751725145931e-01,4.962454187443743336e-02,-9.370041561862052504e-02,1.039435194199180845e-01,-2.665254079861234526e-02,-2.294157179359201937e-02,3.687549234836278167e-01,-5.958059147192669158e-01,-4.746279924543923556e-01,-1.602734353839831982e-01,1.294671578456325634e-01,2.246288333482984179e-01,-1.694558682692337559e-02,2.533915029628364124e-02,1.369979992951164682e-01,1.273277093204334687e-01,2.049188437521527462e-01,-9.379619305112285588e-02,1.221131869927083446e-01,-3.886471083810461025e-02,1.110223024625156540e-16,0.000000000000000000e+00,0.000000000000000000e+00,2.775557561562891351e-17,-5.551115123125782702e-17,1.675329922520009951e-01,4.099406457947196714e-02,-3.105618564717684826e-01,2.461809213147989617e-01,2.003601830893186886e-02,5.807521181956643019e-02,1.685365753108489795e-01,6.822838792734386981e-02,4.835473452959526686e-02,9.833934359207008313e-02,-3.735587994413984703e-01,-2.775688354247192180e-01,-5.962134545189456958e-03,3.258425356391465577e-01,2.396608908311703701e-02,1.191452606522654389e-01,1.197921721177396259e-01,1.425876390453160170e-01,-5.464315715299372656e-03,2.664959896665486383e-03,-2.195468554065271860e-02,-6.814109738594575916e-02,-4.066906599103187192e-02,2.220446049250313081e-16,1.409222748045682594e-03,0.000000000000000000e+00,2.081668171172168513e-17,-5.551115123125782702e-17,6.686340400499762859e-02,1.993093340179135087e-01,2.930980495783375162e-02,-3.004408058188356989e-02,1.470413649771384890e-01,1.531501187231256722e-01,3.454515998808582733e-01,1.841982580723497964e-01,-1.416437950540450075e-02,1.253467543590547351e-01,-3.052620280482809534e-02,2.526812813343060071e-02,1.418922115702763165e-01,2.001623182857041883e-01,-9.277400276438707571e-02,1.432220622469419502e-01,1.463043144863283018e-01,1.914900683563456329e-01,8.784121056853955167e-02,-1.994215211034489066e-02,-1.447721188203043852e-02,2.204303955908315515e-04,-1.033891985388054810e-02,5.551115123125782702e-17,1.637343968364592117e-02,2.081668171172168513e-17,-1.387778780781445676e-17,0.000000000000000000e+00,-1.353807254303962537e-01,-8.266107148487300549e-02,-1.965449570290869197e-01,-1.622451505545794426e-01,6.073753449198759924e-02,1.070133047720456254e-02,2.045846670687230251e-01,1.901571803674434458e-02,1.655068308680735512e-01,-1.587508061098237278e-01,-3.414481548227521479e-01,-1.443281090670205380e-01,-4.149149658655626460e-01,-2.192559619877276766e-02,-3.005763800934546648e-02,1.004915914333995297e-01,-2.112419790287177745e-01,-3.926437150534288767e-01,1.979037328097787984e-02,1.211666530586139601e-01,1.488693119901107753e-01,-7.454876035424180813e-02,-3.479876977048668163e-02,5.551115123125782702e-17,-1.387778780781445676e-17,0.000000000000000000e+00,0.000000000000000000e+00,5.551115123125782702e-17,-7.056994302761787630e-02,1.387504870449485228e-01,-7.070913525382982456e-02,7.066188480944868289e-02,2.692059835059046335e-02,1.121280382377412010e-01,1.325442484351857519e-02,2.126746110438196835e-01,7.976285104720637342e-02,6.891511080459145067e-02,-6.444153211822611915e-02,-7.930109048732836285e-02,-4.343018664869369161e-02,9.841966307813398984e-02,-1.215639719756920201e-01,7.995110248268577635e-02,1.897298879558165785e-01,-3.445470327160855550e-01,8.194317364879966092e-02,3.511190252835882930e-02,-1.015895144559591928e-01,-8.360787417201309690e-02,-1.110223024625156540e-16,5.551115123125782702e-17,6.938893903907228378e-18,0.000000000000000000e+00,6.938893903907228378e-18,0.000000000000000000e+00,8.809358002550504718e-03,-3.552180742405912639e-01,-3.534268292734910055e-02,-1.097795559652809949e-01,1.420516672445630846e-01,-2.405925545435367852e-01,-1.685566365075696904e-01,1.423017289159971277e-01,2.938960799496015408e-02,2.785012578958033225e-01,-3.589232975931300196e-02,-3.516256516749338701e-02,1.074007511771057910e-01,-1.325565477448828466e-01,-1.597080694920990918e-01,-2.557079191633859772e-01,-1.609311213085296011e-02,1.305871987735187645e-01,3.064961308180669253e-02,-9.390916092914837476e-02,3.699982457754658061e-03,6.735687162561032615e-02,4.090339903278394917e-03,2.715022392987245792e-02,-1.387778780781445676e-17,-1.387778780781445676e-17,0.000000000000000000e+00,-1.110223024625156540e-16,-3.941178675426811051e-02,1.988017902334187625e-01,2.226093925753402925e-01,3.251452254487929849e-02,4.436516527662481835e-02,-1.429160481512239400e-01,6.141435028369368609e-02,1.711563642170226274e-01,2.612178081093485815e-01,1.560421027167784302e-01,-3.958607834279570525e-02,-2.526789916472678144e-01,7.735521518829391319e-02,1.446719369574965830e-01,-5.695915444610734069e-01,8.197216705924836866e-02,-5.337828294778557137e-02,-1.388836574422984693e-01,-1.799779344096802680e-01,-1.045608608023583797e-01,1.593407650845753976e-01,2.276670465139518651e-02,9.425174889801157807e-03,5.945775834005848082e-02,-2.081668171172168513e-17,-1.387778780781445676e-17,-3.469446951953614189e-17,-8.326672684688674053e-17,9.519709944386778311e-03,2.268326460389846755e-02,1.060475882741238052e-01,-1.946376738203370316e-02,-3.138567494432686900e-02,-1.738372116170761039e-02,2.771107492092905744e-02,-6.970340751807224677e-02,-1.637666415046910018e-01,2.051935005840230808e-01,4.446114016297297855e-01,-1.726079676152125764e-02,-1.215360715840472228e-01,3.688202166223286671e-02,8.040727952988113714e-02,-2.685447966245868567e-01,-1.012175304078044291e-01,-1.714124151478838010e-02,4.671042569662514632e-02,-1.925101461247015200e-01,-2.775299084219029488e-03,-7.547146548111949294e-04,8.833912726427806117e-03,6.017176820713765473e-02,-1.387778780781445676e-17,0.000000000000000000e+00,0.000000000000000000e+00,5.551115123125782702e-17,1.665334536937734811e-16,-3.410511488496649757e-01,-6.289689602280484904e-02,5.931696179546644410e-02,-9.165209607709640105e-02,2.270990555625295726e-01,-1.336534411904143349e-01,2.164199394008037292e-02,1.196127333900851575e-01,-1.319351159252389882e-01,3.208499143967002976e-02,1.032234355656034275e-01,9.276621247176580765e-02,1.129511769428269974e-01,-2.585195663253470055e-02,1.532784300782953357e-01,-4.345640683655316305e-02,-3.260887103296428169e-02,-2.137804094265630672e-01,-8.088689466281095974e-02,-8.285840218407836133e-03,-1.801910776273729642e-03,-5.551115123125782702e-17,4.163336342344337027e-17,0.000000000000000000e+00,0.000000000000000000e+00,0.000000000000000000e+00,2.775557561562891351e-17,8.326672684688674053e-17,5.239318370489876031e-02,-2.511882607500159903e-02,-7.915755711686545126e-02,1.188509908149596450e-01,-1.067986612839382232e-01,2.879172526728979165e-02,1.838229854523643070e-02,-6.289167736786227536e-02,7.420124903690317186e-02,-4.713837237570994709e-02,2.596524982900388356e-01,-1.588234355662718755e-01,-2.031526177371412167e-02,-1.043114218181329100e-02,4.923920819206351052e-02,2.099161325538229095e-01,-1.106987681285376279e-02,-1.371479239223671875e-02,-7.645398122813173991e-03,-1.743736758114122765e-03,-3.785204656974849868e-03,-5.551115123125782702e-17,-2.775557561562891351e-17,0.000000000000000000e+00,0.000000000000000000e+00,0.000000000000000000e+00,1.387778780781445676e-17,0.000000000000000000e+00,-2.775557561562891351e-17,0.000000000000000000e+00,-1.201106114563822436e-01,-1.366423346246516957e-01,1.461801827404598519e-01,-3.543789835240351849e-02,-7.609882982624038839e-02,-1.820516159857050731e-01,-4.002222755973927626e-01,-4.452424220776052266e-02,7.306704537693575752e-02,-3.607758378254222187e-02,-2.207745733283350553e-02,-9.226613136299910423e-02,-9.386499039029061464e-02,-7.185464234448546428e-03,-1.110223024625156540e-16,-1.665334536937734811e-16,-6.469927206925740748e-05,-2.302706842447682645e-03,-5.373089138404868459e-03,-6.938893903907228378e-18,-2.081668171172168513e-17,0.000000000000000000e+00,0.000000000000000000e+00,0.000000000000000000e+00,0.000000000000000000e+00,0.000000000000000000e+00,0.000000000000000000e+00,-5.551115123125782702e-17,-5.551115123125782702e-17,0.000000000000000000e+00,-4.440892098500626162e-16,7.771561172376095783e-16,-3.930329532270127046e-03,-3.195627276839374531e-02,-4.643122922720133161e-02,-2.750493840529211198e-02,-2.786206889596964942e-03,-4.440892098500626162e-16,-4.457039634590653776e-03,-5.335601396480182945e-02,-1.654141512522044888e-02,-1.110223024625156540e-16,0.000000000000000000e+00,5.551115123125782702e-17,0.000000000000000000e+00,-9.714451465470119729e-17,2.775557561562891351e-17,-1.387778780781445676e-17,0.000000000000000000e+00,0.000000000000000000e+00,0.000000000000000000e+00,0.000000000000000000e+00,0.000000000000000000e+00,0.000000000000000000e+00,0.000000000000000000e+00,6.938893903907228378e-18,0.000000000000000000e+00,-5.551115123125782702e-17,0.000000000000000000e+00,5.551115123125782702e-17,-1.665334536937734811e-16,-1.110223024625156540e-16,-5.551115123125782702e-17,2.775557561562891351e-16,1.665334536937734811e-16,-1.110223024625156540e-16,1.110223024625156540e-16,0.000000000000000000e+00,-2.775557561562891351e-17,-1.665334536937734811e-16,1.110223024625156540e-16,4.163336342344337027e-17,1.387778780781445676e-17,0.000000000000000000e+00,0.000000000000000000e+00,0.000000000000000000e+00,0.000000000000000000e+00,0.000000000000000000e+00
